Sno,Weight
0,-0.007246038
1,0.010605591
2,-0.044357724
3,0.0055373237
4,-0.014993044
5,0.010977675
6,-0.008372074
7,-0.024993327
8,-0.014742167
9,0.009616104
10,0.01964277
11,-0.014599798
12,-0.037111435
13,0.01573174
14,0.039514996
15,-0.067870475
16,-0.04515468
17,0.019040314
18,0.024740286
19,-0.021018818
20,-0.061112534
21,-0.00114646
22,0.023394635
23,0.033923067
24,0.029512063
25,-0.04181349
26,-0.02003317
27,0.12245712
28,-0.002500977
29,-0.035817083
30,-0.015185489
31,-0.032517094
32,0.024230579
33,-0.0034591511
34,-0.008047454
35,0.01578204
36,0.013274183
37,0.03722008
38,0.00975701
39,0.012188314
40,0.029590702
41,-0.032032423
42,0.073444694
43,-0.011995363
44,0.0011568755
45,0.008403667
46,-0.018306674
47,-0.03853906
48,-0.026664931
49,-0.013423143
50,-0.032594755
51,-0.008389804
52,0.031473167
53,-0.030149218
54,-0.024899973
55,-0.028024234
56,0.02875136
57,0.048772182
58,0.04006237
59,-0.037571028
60,-0.023565475
61,-0.012142874
62,0.0156781
63,0.025554752
64,0.017981531
65,-0.023028906
66,0.024007607
67,-0.028735958
68,-0.036919896
69,-0.027298743
70,-0.03612254
71,-0.019181157
72,-0.056411978
73,0.02381134
74,0.029509012
75,0.009602079
76,0.0022462285
77,-0.019051064
78,0.010789463
79,-0.03177325
80,0.029330723
81,-0.02820289
82,0.0061589666
83,0.019962134
84,0.041621033
85,-0.01898243
86,-0.01330602
87,0.034305375
88,-0.04057866
89,-0.053635437
90,0.060099818
91,0.012278809
92,0.006106451
93,0.016540378
94,-0.01562367
95,-0.011709452
96,0.016067749
97,0.05556093
98,-0.046882253
99,-0.0028372665
100,0.031022415
101,-0.042788137
102,0.016415216
103,0.006505102
104,0.0041443002
105,0.033949245
106,-0.036009252
107,0.0056675035
108,0.03568988
109,0.027277838
110,-0.025039762
111,-0.023137204
112,0.021607462
113,0.008910778
114,-0.0521307
115,-0.019176608
116,0.047501907
117,-0.003067847
118,-0.010768844
119,-0.02451328
120,-0.045161244
121,-0.023240235
122,0.015077689
123,-0.034912493
124,-0.009854402
125,0.0036359946
126,-0.031177966
127,0.005298293
128,0.0225942
129,0.021041926
130,-0.0033590908
131,0.018041927
132,0.03198745
133,0.01828774
134,-0.043052673
135,-0.01903096
136,0.041901786
137,0.03543467
138,-0.004241179
139,0.01713821
140,0.009052754
141,0.01338196
142,0.03910306
143,-0.06790471
144,-0.05810645
145,0.01421268
146,-0.0010488306
147,-0.047546353
148,0.016961357
149,0.021343406
150,0.012552893
151,-0.035446484
152,0.019482398
153,0.008058424
154,0.024681536
155,0.002790709
156,0.021588374
157,0.04385951
158,-0.06128755
159,0.05127889
160,0.027580244
161,0.040607218
162,-0.029334089
163,0.02742235
164,-0.032271054
165,-0.03501945
166,0.028238747
167,0.02552772
168,0.030702105
169,0.028152477
170,-0.008414825
171,0.028165447
172,-0.0016470744
173,0.05327254
174,0.044734716
175,0.034489833
176,0.038475957
177,0.024480013
178,0.013549897
179,0.036017306
180,0.010193627
181,0.040522866
182,0.063886404
183,0.038705345
184,-0.0009421025
185,0.003026743
186,0.0352354
187,0.037536733
188,0.025858115
189,0.033385366
190,0.003977626
191,0.025190078
192,-0.048014045
193,0.031377375
194,-0.01579723
195,0.040389378
196,0.030467596
197,0.011887163
198,-0.041189395
199,0.0632443
200,-0.03343148
201,-0.084776565
202,0.051422868
203,0.016550606
204,0.028744837
205,0.021796541
206,0.018874187
207,0.04010512
208,0.004230424
209,0.03120451
210,0.022561943
211,0.019194296
212,-0.05167285
213,0.039315943
214,-0.004734094
215,-0.057135593
216,-0.008820512
217,-0.05635018
218,0.05354343
219,0.017692637
220,-0.03191628
221,0.020001562
222,0.02991995
223,-0.04838151
224,0.034526158
225,0.009171954
226,0.0051325676
227,0.025229553
228,0.0066909925
229,-0.0250128
230,0.05825525
231,0.029691318
232,0.016886335
233,-0.06616033
234,-0.036070436
235,0.046069298
236,0.050668623
237,-0.008214715
238,-0.025151074
239,-0.053896993
240,0.008884923
241,-0.13603666
242,-0.03442984
243,0.0067269914
244,-0.015024793
245,0.01041049
246,0.017905576
247,0.010037394
248,-0.046606496
249,0.02879055
250,0.0119258
251,0.010119826
252,0.049095187
253,0.014273926
254,0.024880944
255,0.0029514777
256,0.030300701
257,0.027059352
258,0.013234721
259,0.009225567
260,-0.0504908
261,-0.0545579
262,0.014700989
263,0.026611801
264,-0.045074068
265,0.037954226
266,0.04662985
267,-0.042138904
268,0.03012766
269,0.014890219
270,0.0066661127
271,-0.015245144
272,0.049750082
273,0.0236536
274,0.008641489
275,0.007948771
276,-0.08184613
277,0.049189676
278,0.013204237
279,-0.014816105
280,0.032383412
281,0.02529462
282,-0.04011048
283,0.040792834
284,0.019071637
285,-0.027989518
286,0.018084818
287,-0.03342474
288,-0.06447915
289,0.029976156
290,-0.003575609
291,0.03585643
292,0.024896733
293,-0.03033549
294,0.019086424
295,0.026797483
296,0.00764275
297,0.021204952
298,-0.032701496
299,-0.00056006125
300,0.0125622265
301,0.052386146
302,0.0010783902
303,0.0284412
304,0.005965204
305,0.030730426
306,0.021493224
307,-0.01775976
308,0.040580742
309,0.023276836
310,-0.038141843
311,0.041453086
312,0.007633802
313,-0.01457114
314,-0.010680799
315,0.011998228
316,-0.014026585
317,-0.033842288
318,0.013677594
319,0.055528037
320,0.041612443
321,0.022936122
322,0.042988814
323,-0.050498378
324,0.02584707
325,0.03571289
326,0.017794058
327,-0.042548433
328,0.0786789
329,0.081523605
330,0.04659305
331,-0.0121936975
332,0.028952539
333,0.01795444
334,0.018246992
335,0.02731037
336,0.010109566
337,0.016099997
338,-0.006620777
339,0.0147459
340,-0.06213989
341,-0.048722737
342,0.023012474
343,-0.060733117
344,0.015612306
345,0.038132865
346,-0.0044776686
347,0.036089998
348,0.057926603
349,-0.005106422
350,-0.03974326
351,0.0456241
352,0.019720403
353,0.009991155
354,-0.0077731707
355,0.011612784
356,0.04622782
357,0.031370487
358,0.023034835
359,-0.041952338
360,0.006111243
361,-0.045609944
362,0.020331006
363,-0.032491997
364,-0.03436103
365,0.0045324
366,0.028256325
367,-0.015756516
368,0.014044146
369,0.116133474
370,-0.011080368
371,0.04878647
372,0.0030320187
373,0.047492366
374,-0.040797576
375,0.006194955
376,0.036096867
377,-0.0356365
378,0.010911844
379,0.035017494
380,0.04584306
381,0.006503333
382,0.014638517
383,-0.0068078046
384,0.045446362
385,0.03819616
386,-0.030765833
387,0.009422182
388,0.0436432
389,-0.05615411
390,0.017725315
391,0.023958592
392,-0.025636094
393,0.036728516
394,0.04680202
395,0.027791934
396,0.030071259
397,0.022496345
398,0.050327428
399,0.07623967
400,-0.057981525
401,-0.042940218
402,-0.03205349
403,0.035277847
404,0.054049224
405,0.010897546
406,-0.038012996
407,0.010506537
408,0.028330313
409,0.017835919
410,0.020555623
411,0.04138452
412,0.039347958
413,0.045796685
414,0.07297897
415,0.041334964
416,0.040159956
417,0.025324319
418,0.08508306
419,0.024229119
420,0.026392698
421,0.078969546
422,0.03141627
423,-0.02737507
424,0.03007136
425,0.021146044
426,0.011520824
427,0.024144582
428,0.021392023
429,-0.077104084
430,0.033544317
431,-0.0248992
432,0.014283385
433,-0.044883087
434,0.018740758
435,0.03552699
436,-0.051247783
437,-0.039088782
438,0.041787893
439,-0.03854675
440,-0.029054787
441,-0.022513255
442,-0.044196326
443,-0.032423068
444,-0.023549195
445,0.045503754
446,0.008555835
447,-0.03435877
448,0.022433668
449,-0.024116369
450,0.005578859
451,0.048393503
452,-0.037923466
453,-0.040990625
454,0.0130855525
455,-0.0033953453
456,-0.056442693
457,0.035316274
458,-0.027889967
459,-0.016475018
460,-0.04154305
461,0.018698191
462,-0.03737904
463,0.024766183
464,-0.0391927
465,0.03729817
466,0.013064832
467,0.053768948
468,-0.044499986
469,-0.048708357
470,-0.04032558
471,0.034755357
472,-0.03158802
473,0.041247047
474,0.041073576
475,-0.046114676
476,0.011864304
477,0.025803389
478,0.03367879
479,0.049553625
480,-0.04804417
481,0.044494465
482,0.018655425
483,0.01029719
484,-0.04446006
485,0.03545044
486,-0.04579038
487,0.02740662
488,-0.031844467
489,0.03844226
490,0.025847372
491,0.04258822
492,-0.008041266
493,0.007723133
494,-0.012091436
495,0.029544232
496,-0.049048755
497,-0.009041957
498,0.020078354
499,0.028607866
500,0.02431276
501,-0.014292097
502,0.03127841
503,-0.047477055
504,0.044874355
505,0.020046754
506,-0.0389734
507,0.039130375
508,-0.032947287
509,-0.039863247
510,0.03281245
511,0.036690816
512,-0.026144449
513,-0.020240678
514,0.038292393
515,-0.083265014
516,-0.028778065
517,-0.05274191
518,-0.028627094
519,0.021409972
520,0.051416475
521,-0.046232965
522,-0.024390962
523,0.02399502
524,-0.033240583
525,-0.043074664
526,-0.07294101
527,-0.014982925
528,-0.026770787
529,-0.037215978
530,0.011995854
531,0.03656903
532,0.0067115817
533,-0.016066879
534,0.02997233
535,0.031009277
536,-0.003710319
537,-0.031582795
538,-0.04484586
539,-0.019534666
540,0.011230262
541,-0.035097353
542,0.05048097
543,-0.033443224
544,-0.042184662
545,0.0019000277
546,0.028716667
547,0.014163711
548,0.036056392
549,-0.0081383595
550,-0.02075961
551,-0.029983837
552,0.021986095
553,-0.03525473
554,0.00492281
555,-0.03981542
556,-0.05303416
557,-0.026631882
558,0.016763853
559,-0.035354655
560,-0.026753705
561,-0.04974458
562,-0.03694806
563,0.030490633
564,-0.0819721
565,-0.04179107
566,0.00042091715
567,-0.038513247
568,-0.029251454
569,0.017512549
570,-0.0052232672
571,-0.029666917
572,0.043574516
573,-0.05688544
574,-0.05906936
575,-0.04962314
576,0.008263127
577,0.040524576
578,-0.0035787495
579,-0.048916064
580,-0.037929457
581,-0.032379285
582,0.024234863
583,0.024723051
584,0.03215925
585,-0.024278585
586,-0.043630417
587,0.022888426
588,-0.048764408
589,0.029140307
590,-0.027361106
591,0.011120763
592,0.026535613
593,0.025741335
594,-0.036834273
595,-0.018930364
596,0.05131734
597,0.055102713
598,0.03569981
599,-0.060654853
600,0.028068721
601,-0.05487176
602,0.020872595
603,-0.046410806
604,-0.034984857
605,-0.031017339
606,0.03055858
607,0.042261694
608,-0.047292884
609,-0.024895437
610,-0.025351025
611,-0.026746402
612,-0.025136383
613,-0.0432728
614,-0.0071139573
615,0.030434363
616,0.038042866
617,-0.06740915
618,0.03128534
619,-0.028106853
620,0.03004152
621,-0.026362605
622,0.020600915
623,0.039489716
624,-0.05390146
625,0.015575627
626,0.041670937
627,0.0021302619
628,-0.0031048614
629,-0.029589593
630,0.023531102
631,0.022772392
632,-0.04660683
633,0.034686893
634,-0.034649573
635,-0.03257018
636,-0.025893802
637,0.043752093
638,-0.031193927
639,0.026414676
640,0.010595357
641,0.019908343
642,-0.044375043
643,-0.0867661
644,-0.024463473
645,0.046913154
646,-0.007036051
647,-0.014912542
648,0.041935764
649,-0.044247005
650,-0.038811997
651,-0.019601561
652,-0.03491302
653,-0.02482691
654,-0.047188547
655,0.0059299474
656,0.052659027
657,0.032956243
658,-0.019911252
659,-0.017647156
660,0.028495677
661,-0.026202785
662,-0.042885456
663,-0.034825694
664,0.0125496965
665,-0.038579673
666,-0.05631956
667,-0.028942594
668,0.020414691
669,-0.035821967
670,-0.02210362
671,-0.03198257
672,-0.04693165
673,-0.00010203394
674,-0.020712929
675,0.029906843
676,-0.03545432
677,-0.021085147
678,-0.015989386
679,-0.038541466
680,-0.003122017
681,-0.017021006
682,-0.0011537218
683,-0.053299475
684,-0.03776425
685,0.00046823092
686,0.014837883
687,-0.037088882
688,-0.02673066
689,0.05338739
690,-0.02319404
691,0.010079435
692,-0.05675379
693,-0.027421027
694,0.006076463
695,-0.03859209
696,0.033047512
697,-0.03918703
698,-0.032338124
699,0.043291017
700,-0.014253209
701,-0.055843122
702,-0.05207812
703,-0.021404557
704,-0.011109579
705,-0.022922868
706,-0.028798543
707,-0.04700363
708,-0.02046451
709,-0.040655684
710,-0.036205076
711,0.028251585
712,-0.022876935
713,0.0038867542
714,-0.008438117
715,-0.053958103
716,-0.027808573
717,0.022748586
718,-0.02497875
719,0.025050215
720,-0.04619744
721,0.033087187
722,-0.04692595
723,0.038596105
724,-0.04529317
725,0.054126736
726,-0.046386305
727,0.047678687
728,0.04289239
729,0.03138068
730,0.006619835
731,-0.052835617
732,-0.01279979
733,-0.04018766
734,-0.029527402
735,0.038378622
736,-0.05251797
737,-0.0345232
738,-0.026161961
739,-0.026725221
740,-0.004624707
741,-0.035410017
742,0.003381483
743,-0.013374965
744,-0.018636294
745,0.044243902
746,-0.020704005
747,0.039755035
748,0.0333379
749,-0.034176536
750,-0.02516113
751,-0.0540492
752,0.029138481
753,0.0133563345
754,-0.036077376
755,0.035382997
756,0.012677111
757,-0.01756201
758,0.021537025
759,0.03846739
760,-0.03363225
761,-0.041182157
762,0.03421933
763,-0.030020928
764,-0.033913605
765,-0.010979801
766,-0.018269524
767,0.0014504222
768,-0.02043529
769,0.02194944
770,-0.030887494
771,0.04684774
772,-0.008031739
773,-0.05930071
774,-0.0057248287
775,-0.025003066
776,0.060697585
777,-0.017669506
778,-0.021131204
779,-0.025936713
780,-0.012082293
781,-0.0254968
782,-0.053183943
783,0.035213217
784,-0.027225886
785,-0.036887776
786,-0.03586821
787,-0.02355759
788,-0.0041253977
789,-5.525408e-05
790,-0.0231225
791,-0.034619167
792,0.005165905
793,-0.022507405
794,-0.06658679
795,-0.030135335
796,-0.0027132968
797,-0.021162938
798,-0.026176374
799,-0.02703262
800,0.043920293
801,-0.004808517
802,-0.024312394
803,0.0019398901
804,-0.048541266
805,-0.024882996
806,0.0094551
807,-0.044970248
808,0.018900234
809,-0.012884191
810,0.00070206734
811,-0.06562325
812,0.045305524
813,0.031474046
814,0.011938119
815,-0.017382637
816,-0.026136905
817,-0.045123536
818,-0.011559407
819,-0.002366106
820,0.05329461
821,0.06355502
822,0.006271938
823,-0.0072855875
824,-0.03730537
825,-0.031910215
826,-0.031176357
827,-0.0374307
828,0.023942323
829,-0.02031482
830,0.0457293
831,0.03082531
832,0.00096251274
833,-0.005981807
834,-0.032494884
835,0.003990446
836,-0.031223647
837,-0.016476734
838,-0.030051123
839,-0.0038308278
840,-0.021884652
841,0.00082770636
842,-0.052738808
843,-0.04057068
844,-0.01783337
845,0.010288885
846,-0.008647523
847,-0.021169357
848,-0.021981722
849,0.018005768
850,-0.057981636
851,0.04340846
852,-0.04960667
853,-0.041857246
854,-0.021502035
855,-0.04468747
856,-0.026604818
857,-0.036958747
858,0.026759455
859,-0.04320682
860,-0.019253537
861,-0.05156209
862,-0.038525518
863,0.011779281
864,-0.04395427
865,-0.04518985
866,-0.01890459
867,-0.016485032
868,-0.027140185
869,-0.018176014
870,-0.0029065497
871,-0.01527692
872,-0.027284674
873,-0.059280947
874,-0.03510068
875,-0.03026873
876,-0.016258791
877,-0.04152415
878,-0.022870513
879,-0.054051712
880,-0.06142526
881,0.016293403
882,-0.051409185
883,-0.025128467
884,0.0053865123
885,-0.013438787
886,-0.036537573
887,-0.055313285
888,-0.010408804
889,-0.040087998
890,-0.03800923
891,-0.034902934
892,-0.022666443
893,-0.005324664
894,-0.014980274
895,-0.008134226
896,-0.031398922
897,-0.01620913
898,-0.027003363
899,-0.092520215
900,0.0011278801
901,-0.044754464
902,-0.0007759098
903,-0.024968995
904,-0.041953176
905,-0.013939399
906,-0.032307442
907,-0.014058159
908,-0.002839991
909,-0.020799465
910,-0.0597826
911,0.020218242
912,-0.026672006
913,-0.031924702
914,-0.035858206
915,-0.007903298
916,-0.019311372
917,0.0072355573
918,-0.019825097
919,-0.034932103
920,-0.028272077
921,-0.02621198
922,0.0279024
923,-0.015276122
924,0.017660407
925,-0.004922854
926,-0.0062577724
927,-0.00998026
928,-0.068444006
929,0.0029196932
930,-0.012125724
931,0.010189771
932,-0.044972446
933,-0.02989432
934,0.026581626
935,0.050682697
936,0.011030065
937,-0.012735465
938,-0.0024711185
939,0.027909672
940,-0.053149268
941,0.008365687
942,-0.024944313
943,-0.0070343902
944,-0.021327732
945,-0.028957138
946,-0.00888949
947,0.015304919
948,-0.08101976
949,0.034206446
950,0.02765818
951,-0.011529834
952,-0.026327234
953,-0.031027414
954,-0.023729164
955,-0.01366111
956,0.034566358
957,-5.7018664e-05
958,-0.06109135
959,0.0058226064
960,-0.03089722
961,-0.0016337093
962,-0.032192063
963,-0.0060128774
964,-0.022643786
965,-0.028529398
966,-0.03603687
967,-0.031220946
968,-0.013282121
969,0.0003490966
970,-0.0014508497
971,-0.05350011
972,-0.004154837
973,0.008296074
974,-0.020886615
975,0.00847201
976,-0.023496345
977,-0.035706677
978,0.029970387
979,0.012227498
980,-0.03447304
981,-0.03228296
982,-0.029755764
983,-0.041800167
984,-0.031373214
985,-0.046509936
986,0.014311535
987,0.03661686
988,-0.0015248354
989,0.02750777
990,-0.018474216
991,-0.050904293
992,0.04584746
993,-0.0442103
994,-0.023594717
995,-0.0013552409
996,-0.044189792
997,-0.022254635
998,-0.005212111
999,-0.0014627967
1000,-0.011900186
1001,-0.05363374
1002,-0.036079403
1003,-0.02011527
1004,-0.025544247
1005,0.029598411
1006,-0.025077764
1007,-0.044220205
1008,-0.045620613
1009,0.004026549
1010,-0.043063417
1011,0.009518907
1012,-0.0054776124
1013,-0.0051637474
1014,-0.028103884
1015,-0.0501198
1016,-0.022434166
1017,-0.025210312
1018,-0.034328178
1019,-0.017032038
1020,0.04320843
1021,-0.010884841
1022,-0.010484295
1023,-0.016677683
1024,-0.03320597
1025,-0.040565405
1026,-0.03368003
1027,-0.08299587
1028,0.0028529295
1029,-0.045668036
1030,0.013608725
1031,-0.0249794
1032,-0.037754625
1033,-0.017463965
1034,-0.01811704
1035,-0.017046867
1036,0.0037892335
1037,0.0049908403
1038,-0.01901201
1039,0.021281246
1040,-0.017859196
1041,-0.024414666
1042,0.00608754
1043,-0.01099942
1044,0.0130269
1045,-0.0035177257
1046,-0.014395171
1047,-0.034709238
1048,-0.03535063
1049,-0.015986895
1050,0.0058420026
1051,-0.015471566
1052,0.012750085
1053,0.00987418
1054,-0.017810663
1055,0.0027228717
1056,-0.055523045
1057,0.0108146155
1058,0.01978344
1059,-0.041690774
1060,-0.035838913
1061,0.005092973
1062,-0.043097842
1063,-0.0046409583
1064,-0.02577577
1065,0.031205459
1066,-0.00485684
1067,-0.066929296
1068,-0.0052282657
1069,0.0023306487
1070,-0.011574939
1071,0.033763397
1072,0.019400425
1073,-0.042114384
1074,0.008064035
1075,0.014042885
1076,-0.044869706
1077,-0.046799164
1078,0.01918926
1079,0.018854182
1080,-0.0016328355
1081,-7.769799e-05
1082,0.009060758
1083,-0.008706492
1084,-0.023730796
1085,-0.008300624
1086,-0.012699222
1087,-0.0053756298
1088,-0.04155101
1089,-0.015454576
1090,0.0010220966
1091,-0.007703803
1092,0.03180798
1093,0.019189347
1094,-0.022260455
1095,0.01875666
1096,0.0070805736
1097,-0.0044777365
1098,0.026183795
1099,-0.037081644
1100,0.018129949
1101,-0.002089009
1102,0.02638951
1103,-0.0054681427
1104,-0.0003383171
1105,0.0025508478
1106,0.010046338
1107,-0.010649168
1108,-0.0445606
1109,-0.037573475
1110,-0.02206364
1111,-0.03568815
1112,-0.03169033
1113,-0.033652365
1114,0.0025943215
1115,-0.0552814
1116,-0.0008483517
1117,0.007452632
1118,-0.020555109
1119,0.016888253
1120,-0.041885562
1121,0.010096444
1122,-0.014435558
1123,0.031233147
1124,0.008580818
1125,-0.0013473529
1126,-0.011334912
1127,-0.0030377107
1128,-0.009172096
1129,-0.039881095
1130,-0.030057175
1131,-0.023659503
1132,0.00478969
1133,0.00079834706
1134,-0.00073939224
1135,-0.04655759
1136,-0.04580313
1137,0.0011648175
1138,-0.032844592
1139,0.0034068772
1140,-0.015390565
1141,0.036880996
1142,-0.028871441
1143,-0.038731158
1144,0.010193355
1145,-0.031807717
1146,-0.023825066
1147,-0.0067807077
1148,0.003920152
1149,-0.006967223
1150,0.020355443
1151,-0.023767991
1152,0.048450373
1153,0.027177572
1154,-0.005947348
1155,-0.008141222
1156,-0.0017787367
1157,-0.029507961
1158,0.018713355
1159,0.0059277327
1160,-0.015513149
1161,0.002490872
1162,0.010187487
1163,-0.010726197
1164,-0.004479627
1165,-0.0033048717
1166,-0.013224732
1167,0.018442802
1168,-0.021410262
1169,-0.031502973
1170,0.02797422
1171,-0.007074156
1172,0.005167219
1173,-0.041942332
1174,-0.021798665
1175,-0.014358624
1176,-0.023642173
1177,-0.012347273
1178,0.008911065
1179,0.005651603
1180,0.024871808
1181,0.0125432545
1182,0.005424824
1183,-0.0071295453
1184,-0.022697708
1185,0.02415895
1186,0.014946127
1187,0.019700598
1188,-0.017897831
1189,0.004200084
1190,-0.037166502
1191,0.016257126
1192,-0.045507025
1193,0.02949102
1194,0.025692746
1195,-0.03853665
1196,-0.037705123
1197,0.014214304
1198,0.04063183
1199,0.03240523
1200,-0.010805279
1201,-0.037667975
1202,0.022058472
1203,0.015937075
1204,-0.03590978
1205,-0.01803243
1206,0.014938028
1207,0.029705891
1208,-3.4843735e-05
1209,0.00060399505
1210,0.023804754
1211,-0.022296019
1212,-0.012337069
1213,-0.0044720448
1214,-0.03278422
1215,0.014363553
1216,-0.01677694
1217,0.020999767
1218,0.001058303
1219,-0.00858317
1220,0.023766754
1221,0.015479289
1222,-0.012049709
1223,0.04890282
1224,0.017716022
1225,0.008820678
1226,0.0056411843
1227,-0.020278513
1228,0.025174161
1229,-0.01622979
1230,0.027457781
1231,0.013143703
1232,-0.014307527
1233,0.022010844
1234,-0.0003639582
1235,-0.005441302
1236,-0.02143436
1237,-0.024932655
1238,-0.010751537
1239,-0.024230378
1240,-0.011304697
1241,-0.033492006
1242,-0.011631744
1243,-0.010225526
1244,0.013061035
1245,-0.033450767
1246,-0.009558481
1247,0.026881585
1248,0.020549525
1249,0.009795538
1250,0.013002488
1251,0.021744601
1252,0.010664645
1253,0.0064922804
1254,0.04637955
1255,0.013731014
1256,0.0100127375
1257,-0.014316888
1258,-0.019764634
1259,-0.005164243
1260,0.0045013432
1261,0.013089477
1262,-0.009187813
1263,-0.017100928
1264,-0.012235415
1265,0.005218439
1266,-0.012778877
1267,-0.03845722
1268,0.053579945
1269,0.036420256
1270,-0.029803254
1271,-0.043490626
1272,-0.0019968157
1273,-0.02399391
1274,-0.020656023
1275,0.0066242632
1276,0.018612329
1277,-0.009181671
1278,0.010163061
1279,0.02977116
1280,0.014983813
1281,0.040175423
1282,-0.0109482715
1283,-0.017522335
1284,0.009223239
1285,-0.020237759
1286,0.019074187
1287,-0.0021064363
1288,-0.031007132
1289,0.009920175
1290,-0.0011682825
1291,-0.013451206
1292,0.0018517441
1293,0.0001348131
1294,0.02913658
1295,0.010340814
1296,-0.028820615
1297,-0.013244944
1298,0.019365499
1299,-0.00948262
1300,0.0013183459
1301,0.033458818
1302,-0.013251342
1303,-0.0114396475
1304,-0.018596893
1305,0.009064371
1306,-0.008693884
1307,0.0038379622
1308,0.014748246
1309,-0.0045038587
1310,0.0050384784
1311,0.011827095
1312,-0.01365953
1313,0.035297815
1314,0.019735187
1315,0.024183393
1316,-0.014717619
1317,0.0019007752
1318,-0.0007471183
1319,0.021435505
1320,0.025852406
1321,0.013571037
1322,0.04289451
1323,0.008464911
1324,-0.005921074
1325,0.004675187
1326,0.023543589
1327,0.031063031
1328,0.017947607
1329,-0.019960618
1330,0.0044867215
1331,0.035726834
1332,-0.022921504
1333,-0.029661521
1334,-0.008009309
1335,0.030446494
1336,-0.020977745
1337,-0.010771393
1338,0.029861754
1339,-0.010432103
1340,-0.0015903515
1341,0.0021458862
1342,-0.019613357
1343,-0.004931667
1344,-0.01692386
1345,-0.0012496469
1346,0.0007710096
1347,0.0155738965
1348,0.030676182
1349,0.02092246
1350,-0.0033489899
1351,0.033760358
1352,0.0027734137
1353,0.00056356995
1354,0.025057197
1355,0.0016671981
1356,0.000668536
1357,-0.0005693652
1358,0.026870064
1359,0.010616138
1360,-0.006014933
1361,0.053050812
1362,0.00019636693
1363,-0.00032339065
1364,-0.017122049
1365,-0.020461215
1366,-0.012937034
1367,-0.02170627
1368,-0.014405143
1369,-0.018744275
1370,0.005598675
1371,0.014205372
1372,0.016747568
1373,-0.007507364
1374,-0.0052333544
1375,0.04575231
1376,-0.012284399
1377,0.009872321
1378,0.009051621
1379,0.010565032
1380,0.008873336
1381,-0.020320272
1382,0.04532348
1383,0.0032218227
1384,0.0017665392
1385,-0.029024031
1386,-0.023049358
1387,0.006190957
1388,0.007916091
1389,0.014641748
1390,-0.00075113203
1391,-0.008430165
1392,-0.005169117
1393,0.00473197
1394,-0.024130246
1395,-0.026246985
1396,-0.0043705706
1397,0.013581092
1398,-0.013425394
1399,-0.01686793
1400,-0.010956517
1401,-0.01053775
1402,-0.027498014
1403,0.015919687
1404,0.005857655
1405,0.009048756
1406,0.0053383214
1407,-0.023562437
1408,-0.012909572
1409,0.012947406
1410,0.019271683
1411,0.0038096556
1412,-0.002376958
1413,0.009878652
1414,0.008024678
1415,-0.00091552926
1416,-0.0025223566
1417,0.0037157277
1418,-0.0070047267
1419,-0.007923481
1420,0.0071835406
1421,-0.015543569
1422,-0.0044230684
1423,0.007563931
1424,-0.0007698659
1425,0.0017702489
1426,-0.007512337
1427,0.00010999633
1428,-0.018788157
1429,0.011700115
1430,-0.018145844
1431,-0.011561838
1432,-0.0071300543
1433,0.0034925998
1434,0.0039039468
1435,-0.00464354
1436,0.00060668506
1437,-0.013374396
1438,-0.010729454
1439,-0.012531648
1440,0.003823867
1441,-0.003420127
1442,-0.0023291449
1443,-0.016723247
1444,-0.012022446
1445,0.01704812
1446,0.010077991
1447,-0.0008023354
1448,-0.0051413234
1449,-0.0014270598
1450,-0.0024133453
1451,-0.013396259
1452,-0.011538787
1453,-0.0035369801
1454,-0.019550513
1455,0.0032262218
1456,-0.009117061
1457,0.008893041
1458,0.0036681828
1459,-0.0036906234
1460,0.0103888875
1461,0.011437489
1462,0.0033559562
1463,-0.0029880286
1464,0.0054463483
1465,-0.011621086
1466,0.012514825
1467,0.007018536
1468,8.379988e-06
1469,-0.0035800934
1470,-0.011215067
1471,0.001592676
1472,0.0041967314
1473,0.012331254
1474,-0.012619697
1475,-0.0012908722
1476,0.006750439
1477,-0.0037759326
1478,-0.004320981
1479,0.003572126
1480,0.012282478
1481,0.010891697
1482,0.001060874
1483,-0.009493136
1484,-0.0070380587
1485,-0.005556702
1486,0.012095097
1487,0.0050991965
1488,-0.0004776532
1489,0.0043728845
1490,-0.00016113871
1491,0.0033822604
1492,-0.013167066
1493,0.0020453816
1494,-0.01327467
1495,0.0006789793
1496,0.0020124854
1497,-0.012619583
1498,-0.009533469
1499,-0.011746654
1500,-0.0109255165
1501,-0.007396246
1502,0.0040393984
1503,0.017212454
1504,0.0073593548
1505,0.013127551
1506,0.010315452
1507,-0.0034978066
1508,-0.000853653
1509,0.015254485
1510,0.0044099
1511,-0.015386584
1512,0.01308562
1513,0.009051462
1514,-0.0031894438
1515,-0.00096352666
1516,0.00059279305
1517,0.0003116771
1518,-0.0054224753
1519,0.00045791862
1520,0.008100537
1521,-0.0053009056
1522,0.019426273
1523,-0.006598118
1524,-0.0015235973
1525,0.01363412
1526,0.003330366
1527,0.008269482
1528,0.005352311
1529,-0.0063444236
1530,-0.0042440374
1531,0.009424948
1532,-0.0075071105
1533,-0.0014461079
1534,-0.0062333136
1535,-0.0040665525
1536,0.016142415
1537,-0.006270089
1538,0.017752549
1539,0.015590771
1540,0.010938925
1541,-0.0063950038
1542,0.0067057447
1543,-0.0017728413
1544,0.01691199
1545,-0.0064039747
1546,0.0011281797
1547,0.012739458
1548,0.007347057
1549,0.011175689
1550,-0.0055838125
1551,0.00138984
1552,0.015350059
1553,-0.0071838843
1554,-0.019611994
1555,0.0049294624
1556,0.00072471483
1557,0.0045269425
1558,0.0018835224
1559,-0.0076475875
1560,-0.008247684
1561,0.0012076806
1562,0.00015192958
1563,-0.00016261326
1564,-0.0049580405
1565,0.0011018439
1566,-0.00104085
1567,0.0030170204
1568,-0.002568021
1569,0.0015848076
1570,-0.011834112
1571,0.019392217
1572,0.010630135
1573,0.0051772553
1574,0.008856194
1575,0.0035703653
1576,-0.0014922225
1577,0.00310489
1578,-0.00827221
1579,0.017967692
1580,0.010759128
1581,0.009265269
1582,-0.012332823
1583,-0.011678045
1584,-0.0045511224
1585,0.008347354
1586,0.0011346139
1587,0.016141597
1588,0.0048610885
1589,-0.010071937
1590,0.010138103
1591,-0.01426725
1592,-0.0072717313
1593,-0.0076381853
1594,0.00276346
1595,-0.0036815156
1596,0.009233571
1597,0.010282036
1598,-0.004393323
1599,0.0012263004
1600,0.011485638
1601,-0.008711056
1602,-0.019909037
1603,0.0027472102
1604,-0.0010560764
1605,0.010681418
1606,-0.0049328078
1607,0.0006870433
1608,0.007374098
1609,-0.0017784291
1610,-0.0003616392
1611,0.008869181
1612,-0.007927495
1613,0.0036790122
1614,-0.0010119888
1615,0.01863289
1616,0.011446718
1617,0.0046730037
1618,0.011092144
1619,-0.003709623
1620,0.002164138
1621,0.0072791874
1622,0.002684704
1623,0.007413925
1624,0.013529624
1625,0.005036657
1626,0.0069549643
1627,0.0027561693
1628,0.0016458654
1629,-0.0078933
1630,-0.0008340974
1631,-0.0059222477
1632,-0.0012344962
1633,0.0042965515
1634,-0.018267283
1635,-0.0014127169
1636,-0.0034300073
1637,0.005516926
1638,0.004564915
1639,0.010364935
1640,-0.016293583
1641,0.0105525255
1642,-0.012153581
1643,-0.0069827125
1644,0.0026135868
1645,0.0072594043
1646,0.014818761
1647,-0.002500262
1648,0.002948466
1649,0.009398179
1650,-0.003206065
1651,0.0041789166
1652,-0.014588212
1653,0.009616422
1654,0.0038518996
1655,0.00593511
1656,-0.002097027
1657,-0.0017158259
1658,-0.010971931
1659,0.0017671376
1660,0.013943001
1661,0.0071690436
1662,-0.01303517
1663,-0.011211799
1664,0.015861334
1665,0.015740734
1666,-0.009169832
1667,-0.0048118033
1668,-0.01495935
1669,-0.010319656
1670,-0.007667564
1671,-0.0003553238
1672,0.00789319
1673,-0.0041988753
1674,0.0045822216
1675,0.0062932447
1676,0.004782109
1677,-0.007392485
1678,0.0077283853
1679,-0.0017717319
1680,0.009777412
1681,-0.009398494
1682,-0.0033427444
1683,0.0012107125
1684,0.01579147
1685,-0.014222946
1686,-0.0023790477
1687,0.0014699065
1688,-0.0027141545
1689,-0.014172802
1690,-0.0083536925
1691,-0.0072688735
1692,0.00027856167
1693,-0.018082133
1694,-0.004692366
1695,-0.004982049
1696,0.002062508
1697,-0.0020625638
1698,0.0045825285
1699,0.0056635975
1700,0.0022165235
1701,0.014702965
1702,0.0183876
1703,0.016077006
1704,-0.009435451
1705,-0.0124367615
1706,-0.015073559
1707,0.0024500422
1708,0.0043097353
1709,-0.004340595
1710,0.010650201
1711,-0.009903671
1712,0.0021342584
1713,0.019938575
1714,-0.0035352996
1715,-0.007452695
1716,-0.011239775
1717,0.016112322
1718,0.010031515
1719,-0.0036156732
1720,-0.012451075
1721,0.006934004
1722,0.0037058424
1723,0.008318403
1724,-0.0047360677
1725,0.002756371
1726,-0.0017801913
1727,0.008513778
1728,0.0026117035
1729,-0.0053144167
1730,0.00029808003
1731,0.011396767
1732,-0.009217119
1733,0.007261393
1734,0.0061211935
1735,0.0039470335
1736,-0.0033870267
1737,-0.0063148187
1738,0.017973436
1739,0.0055661844
1740,0.0027859162
1741,-0.00067709055
1742,0.008742013
1743,-0.008639591
1744,-0.00848196
1745,0.0041108793
1746,-0.00048254483
1747,-0.0072106835
1748,-0.0021659108
1749,0.016473817
1750,-0.010507381
1751,-0.018238714
1752,0.002994948
1753,0.011056346
1754,-0.0033956703
1755,-0.01938795
1756,0.0040149386
1757,-0.010999558
1758,-0.013063719
1759,0.01671548
1760,-0.005531118
1761,0.016739888
1762,0.0012868436
1763,-0.012019338
1764,0.0010364153
1765,0.00043092534
1766,0.001211245
1767,0.0019603532
1768,-0.006683469
1769,0.007640522
1770,0.0020385522
1771,0.012637587
1772,0.011690682
1773,-0.0025819598
1774,0.016327001
1775,0.0031088104
1776,-0.008736202
1777,-0.00552139
1778,-0.008996338
1779,0.002210452
1780,-0.014718763
1781,-0.006257845
1782,0.015437427
1783,0.0148712285
1784,-0.0003274798
1785,0.002373601
1786,-0.016211182
1787,0.0068076574
1788,-0.0033224258
1789,-0.008930265
1790,-0.00085901056
1791,0.009141783
1792,-0.012127873
1793,0.003295191
1794,0.01844434
1795,0.010429693
1796,0.005514865
1797,0.018511554
1798,0.001551511
1799,0.004701503
1800,-0.0003770212
1801,0.018152596
1802,-0.00155622
1803,-0.002806682
1804,-0.0052011167
1805,-0.010206815
1806,-0.004732223
1807,-0.0107350955
1808,-0.007623511
1809,-0.007546347
1810,0.0055941334
1811,-0.00023897299
1812,0.016012583
1813,-0.010789994
1814,0.003352229
1815,0.00010262352
1816,-0.0072862003
1817,-0.010388774
1818,-0.0071510025
1819,0.00732985
1820,-0.0008197271
1821,-9.2097864e-05
1822,0.010016698
1823,-0.011251358
1824,0.000572565
1825,0.0072655687
1826,-0.0042519253
1827,-0.009544662
1828,-0.009317219
1829,0.0055672405
1830,-0.011372715
1831,0.012897416
1832,-0.005288962
1833,0.0018723975
1834,-0.012339596
1835,0.0066893143
1836,-9.101962e-05
1837,-0.0043702587
1838,0.0029067274
1839,-0.0073763733
1840,-0.008724957
1841,0.00916878
1842,-0.008899499
1843,0.0030796267
1844,0.0026066727
1845,0.0012842262
1846,-0.0020619791
1847,-0.018557744
1848,-0.018891947
1849,-0.0027725685
1850,-0.010657899
1851,-0.0011223059
1852,-0.0061626113
1853,0.0063054613
1854,0.008955271
1855,-0.00074535474
1856,-0.0028939429
1857,-0.0036635299
1858,-0.0006497722
1859,-0.007187075
1860,-0.0073434017
1861,-0.0014567884
1862,0.0047670677
1863,-0.00293296
1864,-0.007597337
1865,-0.005291794
1866,-0.012271291
1867,-0.0032921084
1868,-0.010880075
1869,0.0052657383
1870,0.003769212
1871,0.0012656063
1872,0.0077911755
1873,0.004191788
1874,0.0016995297
1875,-0.004230901
1876,-0.0040944703
1877,0.017362267
1878,-0.001936597
1879,-0.0031899652
1880,-0.0099070445
1881,-0.0015023057
1882,0.00737942
1883,-0.0018203186
1884,0.014325688
1885,-8.6615604e-05
1886,-0.006121513
1887,0.01048794
1888,0.007134492
1889,-0.0027493518
1890,0.0025109255
1891,-0.009303144
1892,-0.0006393512
1893,0.0130274845
1894,-0.013170536
1895,0.0071157017
1896,0.004834754
1897,0.0150117
1898,0.004187594
1899,-0.006350958
1900,-0.011550316
1901,0.011468778
1902,0.0048752045
1903,0.004307595
1904,-0.006625816
1905,0.0029798322
1906,0.007832429
1907,-0.003901995
1908,0.018982703
1909,0.008212008
1910,0.0071589267
1911,-0.002822619
1912,0.0007579316
1913,-0.0015756006
1914,-0.0038090646
1915,-0.019100104
1916,0.0021171751
1917,-0.0060169017
1918,-0.0041012107
1919,0.0062373043
1920,0.007911383
1921,-0.004213002
1922,-0.013508833
1923,-0.00570985
1924,-0.0025964896
1925,0.013309649
1926,0.006611812
1927,0.0020659987
1928,0.008034426
1929,0.005839257
1930,0.0006809832
1931,0.0015921212
1932,0.0031294697
1933,0.008128853
1934,0.019418325
1935,-0.0016935933
1936,-0.008449082
1937,-0.017373657
1938,0.00053495204
1939,-0.0083481725
1940,0.013453664
1941,0.008512045
1942,-0.0136515675
1943,0.014694769
1944,-0.0032537656
1945,0.017669968
1946,0.0014648992
1947,-0.011345125
1948,0.0017529018
1949,0.011769118
1950,0.009836275
1951,-0.0049966923
1952,0.006043172
1953,-0.004268941
1954,0.008767967
1955,-0.0091480035
1956,-0.007754475
1957,-0.008021565
1958,-0.004834099
1959,-0.013183838
1960,0.005596531
1961,0.00015325566
1962,0.0009721795
1963,0.008905973
1964,-0.009764357
1965,0.00845497
1966,0.004010347
1967,0.006418158
1968,-0.008584978
1969,0.0078912405
1970,-0.007458587
1971,-0.0044724494
1972,-0.0034451159
1973,-0.011286689
1974,0.0022178106
1975,0.0035075406
1976,0.0018377648
1977,-0.0010699569
1978,-0.005540524
1979,0.00095907546
1980,-0.006790441
1981,-0.017581435
1982,-0.016653024
1983,0.00012024158
1984,-0.0050321943
1985,-0.003123418
1986,0.0068887942
1987,0.013226101
1988,0.0067188293
1989,0.012445503
1990,0.0038757126
1991,0.01126203
1992,0.015894812
1993,-0.015151038
1994,0.0069268025
1995,0.0032409793
1996,-0.007900438
1997,0.011080449
1998,0.00016490828
1999,-0.0054687434
2000,-0.014589354
2001,-0.009988733
2002,-0.015031452
2003,0.00709479
2004,-0.01276039
2005,-0.0065012327
2006,0.010293796
2007,-0.006924956
2008,0.0055344934
2009,-0.00051252876
2010,0.012240126
2011,0.00019254404
2012,0.0071739387
2013,0.00931019
2014,-0.0038303765
2015,-0.010622595
2016,-0.011570949
2017,0.00036587982
2018,0.007880468
2019,-0.0021625918
2020,-0.0027650478
2021,0.0084466105
2022,0.006517108
2023,-0.0049124975
2024,-0.0025797063
2025,-0.015871197
2026,-0.00605066
2027,-0.006349955
2028,-0.003345991
2029,0.0035862443
2030,0.004497909
2031,0.0043641212
2032,-0.0037732613
2033,0.017185522
2034,-0.014153419
2035,0.010445353
2036,0.005686975
2037,-0.0066176686
2038,-0.0067114895
2039,-0.013378991
2040,0.015094787
2041,0.0071607856
2042,-0.006815413
2043,0.00047583613
2044,0.0035425436
2045,-0.014724743
2046,0.016353529
2047,8.897527e-05
2048,0.020334274
2049,0.0610416
2050,-0.03837603
2051,0.007877392
2052,-0.011930863
2053,-0.04703595
2054,-0.0015852071
2055,0.024937863
2056,0.02282137
2057,-0.03705928
2058,-0.009444684
2059,-0.017271282
2060,-0.030186908
2061,-0.013378759
2062,-0.039159726
2063,-0.018138772
2064,0.0025992438
2065,-0.019276494
2066,0.013786151
2067,-0.035000086
2068,0.0063705724
2069,0.0010693588
2070,-0.0039411867
2071,-0.0361194
2072,0.017504284
2073,-0.029238148
2074,-0.017877642
2075,0.06122901
2076,-0.0029661874
2077,0.028024044
2078,0.020185256
2079,0.016364116
2080,-0.009640655
2081,-0.009522076
2082,0.025480084
2083,-0.018613039
2084,0.0076098414
2085,0.03500718
2086,-0.011162171
2087,0.025368525
2088,-0.030816713
2089,0.0107590435
2090,0.03792724
2091,-0.02821545
2092,-0.026264645
2093,-0.04469263
2094,0.013139261
2095,0.036983397
2096,0.002212132
2097,0.004481288
2098,-0.0009911207
2099,-0.036122497
2100,-0.053320605
2101,0.0051645744
2102,-0.06401394
2103,-0.013640171
2104,0.020708302
2105,0.03152815
2106,0.015097614
2107,0.013484837
2108,0.014331498
2109,-0.020504951
2110,0.013370019
2111,-0.0138233015
2112,0.016857257
2113,0.0034996185
2114,0.02268469
2115,-0.0041601714
2116,-0.0009876
2117,-0.035767615
2118,-0.01071741
2119,-0.06335987
2120,0.010863882
2121,0.00814682
2122,-0.0042376914
2123,-0.00035923725
2124,-0.008790719
2125,0.0036091343
2126,-0.013436838
2127,0.018812297
2128,-0.036174268
2129,0.024316112
2130,0.033847354
2131,-0.01938096
2132,-0.052226674
2133,-8.233685e-05
2134,-0.03593537
2135,-0.04360591
2136,-0.020276403
2137,-0.019119922
2138,-0.06019607
2139,-0.03664815
2140,0.012842281
2141,0.00986163
2142,0.0026763354
2143,0.011834331
2144,-0.0022678243
2145,0.04508532
2146,-0.019465223
2147,0.026661687
2148,0.0014164824
2149,-0.022903858
2150,-0.058392607
2151,0.010552913
2152,0.012422993
2153,-0.044362932
2154,0.0026270477
2155,0.02781825
2156,-0.050680004
2157,0.023087194
2158,-0.008397955
2159,-0.03957691
2160,0.0024150503
2161,-0.0071006585
2162,-0.0390211
2163,0.018306062
2164,0.056742933
2165,0.0106417425
2166,-0.007013977
2167,-0.035787255
2168,-0.0073727896
2169,-0.03473681
2170,-0.0035086721
2171,0.034812048
2172,0.025889417
2173,-0.003259704
2174,-0.03298962
2175,0.02378703
2176,0.03319016
2177,0.0034197664
2178,0.0041765785
2179,-0.0012732499
2180,0.049146373
2181,0.03758357
2182,0.04300226
2183,-0.042558663
2184,0.031483788
2185,0.046183974
2186,0.0040305504
2187,0.03959295
2188,0.021601995
2189,0.042408008
2190,-0.004349524
2191,0.067853846
2192,-0.0375344
2193,0.031744484
2194,0.046872366
2195,0.04746099
2196,-0.021181485
2197,0.049374662
2198,0.023682276
2199,-0.036124337
2200,0.05331414
2201,0.012312957
2202,-0.009300627
2203,-0.040979344
2204,0.05855223
2205,0.022058247
2206,0.06123438
2207,0.018507933
2208,0.049846567
2209,0.030950319
2210,0.029185805
2211,0.047139805
2212,-0.040478993
2213,-0.039366107
2214,0.06276942
2215,0.021693993
2216,0.06015428
2217,0.03194122
2218,0.032531004
2219,-0.0014712696
2220,0.020037444
2221,0.027270062
2222,0.02950573
2223,0.029144987
2224,0.026031878
2225,0.024621455
2226,0.0318317
2227,0.040369622
2228,0.011452126
2229,0.02984191
2230,0.038283527
2231,0.024706585
2232,0.007795511
2233,-0.027228704
2234,0.010617681
2235,0.0077436226
2236,0.008185052
2237,0.03485742
2238,0.016956985
2239,0.057882063
2240,0.047987517
2241,0.016755179
2242,0.014496331
2243,0.046890285
2244,0.027090784
2245,0.0053592827
2246,-0.038167655
2247,0.021210387
2248,0.03342004
2249,0.08474002
2250,-0.049228534
2251,0.0011248675
2252,0.041462425
2253,0.032855283
2254,0.014568608
2255,0.031501316
2256,0.01875898
2257,-0.0042488384
2258,-0.013905564
2259,0.051959734
2260,-0.052202158
2261,0.037526917
2262,0.026384484
2263,-0.045934282
2264,0.011926366
2265,-0.04666345
2266,0.07329082
2267,0.013956916
2268,0.031815343
2269,0.015000191
2270,0.038490824
2271,0.048293468
2272,0.023121517
2273,-0.0037863422
2274,0.013930882
2275,-0.011225019
2276,0.029221296
2277,-0.038734104
2278,0.045755833
2279,0.03273588
2280,0.027206244
2281,-0.03285862
2282,-0.041111052
2283,0.028888129
2284,0.089933924
2285,0.007901314
2286,0.02432195
2287,-0.039773647
2288,-0.015001829
2289,0.13597053
2290,-0.042395845
2291,0.065997735
2292,-0.024307232
2293,0.028787045
2294,0.03905731
2295,0.027107025
2296,-0.04493849
2297,0.035732903
2298,0.03241465
2299,0.030373808
2300,0.03379049
2301,0.045762926
2302,0.031110913
2303,0.02527695
2304,-0.02523993
2305,-0.022195553
2306,0.02193089
2307,0.010228855
2308,-0.04370254
2309,-0.027869467
2310,-0.014807812
2311,0.0102265505
2312,-0.06123084
2313,0.030361583
2314,-0.046662368
2315,-0.027876008
2316,0.021189623
2317,0.0070234747
2318,0.025119402
2319,0.015122919
2320,0.057386793
2321,0.042882167
2322,0.036173575
2323,-0.008053007
2324,0.08181888
2325,-0.049211387
2326,0.027153661
2327,0.0341205
2328,0.02052951
2329,0.026061494
2330,0.0397646
2331,-0.029189114
2332,0.031695154
2333,-0.033001527
2334,-0.01818765
2335,0.033404905
2336,-0.041500896
2337,0.006899221
2338,0.0034240023
2339,0.036177546
2340,0.021919183
2341,0.030315496
2342,-0.0043361904
2343,-0.015541648
2344,0.018598123
2345,0.012700221
2346,-0.0035321943
2347,0.0016591127
2348,0.011670391
2349,0.07899135
2350,0.04449644
2351,-0.031615768
2352,0.020088784
2353,0.027820054
2354,0.02986031
2355,0.025725473
2356,0.047782976
2357,0.009658307
2358,0.038105473
2359,0.036062587
2360,-0.0067515047
2361,0.0108643845
2362,0.0440639
2363,0.015325427
2364,0.023506908
2365,-0.04558096
2366,0.0020491886
2367,0.047921218
2368,0.012868385
2369,0.015873596
2370,-0.04303737
2371,-0.04045144
2372,0.03640658
2373,0.040908314
2374,0.035977993
2375,0.042968422
2376,-0.078750424
2377,-0.08157687
2378,0.031930264
2379,0.016961506
2380,0.049600948
2381,0.03769098
2382,0.03979542
2383,0.008847096
2384,0.03618185
2385,0.01876994
2386,0.005860532
2387,0.03224632
2388,-0.050678443
2389,-0.06012376
2390,0.04030197
2391,-0.021930879
2392,0.031572513
2393,0.043125767
2394,0.009522156
2395,0.04397052
2396,-0.057977535
2397,0.0047908393
2398,-0.033895392
2399,-0.0007459738
2400,0.043305088
2401,-0.01016366
2402,0.03041089
2403,0.0028789032
2404,0.044431727
2405,0.04259553
2406,0.026938675
2407,-0.034721907
2408,0.01720017
2409,-0.027551085
2410,0.022385014
2411,-0.046092153
2412,0.03436897
2413,-0.020109415
2414,-0.028315729
2415,0.035731897
2416,0.017108845
2417,-0.1161639
2418,0.03513636
2419,-0.048841063
2420,0.013783748
2421,-0.047545362
2422,-0.033987947
2423,0.028412579
2424,0.046558883
2425,-0.02997823
2426,0.038854733
2427,-0.012609504
2428,-0.04869303
2429,0.025474127
2430,0.01312912
2431,0.03755263
2432,-0.041689713
2433,-0.011599981
2434,-0.0383661
2435,-0.0023393803
2436,0.028735671
2437,-0.036525622
2438,0.00072093407
2439,0.016195895
2440,-0.061158296
2441,0.04025348
2442,0.026430087
2443,0.01422909
2444,0.03801425
2445,0.01421996
2446,0.076161936
2447,-0.076288335
2448,-0.0488528
2449,-0.030493172
2450,0.01827384
2451,-0.035305217
2452,-0.05414245
2453,-0.019988626
2454,-0.030082984
2455,0.014798789
2456,-0.012405201
2457,0.04176353
2458,0.024104094
2459,0.01996278
2460,0.0008167214
2461,0.035796173
2462,-0.07298287
2463,-0.041343316
2464,0.036809526
2465,0.016874122
2466,-0.08511246
2467,0.025448624
2468,0.013470404
2469,-0.07909344
2470,-0.031427857
2471,-0.035642594
2472,0.009736954
2473,-0.004960116
2474,0.009287651
2475,0.030561142
2476,-0.0021243854
2477,-0.052293587
2478,0.04168184
2479,-0.029967776
2480,0.01498734
2481,-0.048154052
2482,0.008216542
2483,0.029783078
2484,-0.041486893
2485,-0.021584172
2486,-0.041758355
2487,-0.043561216
2488,-0.02853375
2489,-0.048801005
2490,0.0051545263
2491,-0.034201484
2492,-0.040247582
2493,0.05700799
2494,-0.004722071
2495,-0.028024374
2496,-0.0017152993
2497,-0.019665299
2498,-0.0054140706
2499,0.04346278
2500,-0.016025623
2501,-0.030855458
2502,0.016029801
2503,0.040290326
2504,0.05638331
2505,0.016054638
2506,0.04359744
2507,-0.026069235
2508,-0.002214629
2509,0.037389446
2510,-0.0050133415
2511,0.018820351
2512,-0.03217844
2513,0.057759922
2514,-0.010572902
2515,-0.053810533
2516,0.044442143
2517,-0.060223356
2518,-0.03436132
2519,0.046238557
2520,-0.027540019
2521,0.03892138
2522,-0.0155534595
2523,-0.035220742
2524,0.036558144
2525,-0.0070669604
2526,0.011812157
2527,0.04558929
2528,-0.039445955
2529,0.014082414
2530,0.04683934
2531,0.00271531
2532,-0.0066861976
2533,0.03778561
2534,0.038269255
2535,-0.0012257828
2536,-0.03020818
2537,0.05644034
2538,0.020655826
2539,0.019862907
2540,0.016070068
2541,0.013849473
2542,0.012203796
2543,0.032133214
2544,-0.021428162
2545,0.009089674
2546,0.028591244
2547,-0.03354421
2548,0.018924251
2549,0.014298651
2550,0.0007186661
2551,-0.024290508
2552,0.0453546
2553,0.024296705
2554,-0.029062716
2555,-0.033711232
2556,-0.02361425
2557,-0.04391434
2558,0.02788148
2559,-0.036710303
2560,0.020697853
2561,0.014078739
2562,0.044308204
2563,-0.02853591
2564,-0.028972266
2565,-0.032259263
2566,-0.013510486
2567,-0.002877956
2568,0.018215785
2569,-0.03304603
2570,0.03551661
2571,0.021378728
2572,-0.030184181
2573,0.001788167
2574,-0.050245337
2575,-0.019736726
2576,-0.052839987
2577,-0.033136982
2578,-0.02396548
2579,0.02011255
2580,-0.010153951
2581,0.011911548
2582,0.042823713
2583,0.020433102
2584,-0.004018307
2585,-0.029221827
2586,-0.0032423262
2587,0.015960593
2588,0.020849273
2589,-0.046583064
2590,0.040875927
2591,0.01191299
2592,-0.03015073
2593,0.027686074
2594,0.0007774409
2595,0.028457018
2596,0.048448738
2597,0.0109693
2598,0.015891613
2599,-0.036047183
2600,0.01751112
2601,-0.030128632
2602,0.0016068254
2603,-0.025735226
2604,-0.029367885
2605,-0.045108255
2606,0.025803031
2607,-0.030869521
2608,-0.0012180951
2609,-0.053524356
2610,-0.030377593
2611,0.039202686
2612,-0.0388784
2613,-0.042269427
2614,-0.002244297
2615,-0.04365069
2616,-0.03316685
2617,0.03911943
2618,-0.0037390797
2619,-0.036760185
2620,0.013754823
2621,-0.026167361
2622,-0.025911447
2623,-0.055590205
2624,0.002552644
2625,0.022277107
2626,0.029034087
2627,-0.04844175
2628,-0.020720545
2629,-0.018966991
2630,0.029882504
2631,-0.003176522
2632,0.018562749
2633,-0.0038594936
2634,-0.017739782
2635,0.053867698
2636,-0.029072704
2637,0.042164262
2638,-0.015153626
2639,0.01710101
2640,0.04611921
2641,0.05496258
2642,-0.011055912
2643,0.018325824
2644,0.06763363
2645,0.04689252
2646,0.04630852
2647,-0.036745187
2648,0.020997223
2649,-0.04669944
2650,-0.043614525
2651,-0.031642675
2652,-0.012749553
2653,-0.0045766784
2654,0.029471949
2655,0.009363487
2656,-0.026924357
2657,0.0073031494
2658,-0.019498434
2659,-0.02518365
2660,-0.03458523
2661,-0.036091175
2662,0.016998779
2663,0.013338903
2664,0.018547503
2665,-0.04178474
2666,0.035776034
2667,-0.040644325
2668,-0.029999455
2669,-0.025841797
2670,0.021318823
2671,0.04639947
2672,-0.029264187
2673,-0.009338053
2674,0.0520756
2675,-0.008229522
2676,-0.017563598
2677,-0.018761544
2678,0.018756403
2679,0.03313935
2680,-0.044917304
2681,0.040768705
2682,-0.034363985
2683,-0.039445188
2684,-0.033027273
2685,0.018718962
2686,-0.017281545
2687,-0.027701495
2688,-0.010118707
2689,-0.019444158
2690,-0.038317587
2691,-0.042137798
2692,-0.039415352
2693,0.05912928
2694,-0.017326854
2695,-0.039459117
2696,0.026413703
2697,-0.03255007
2698,0.038659267
2699,-0.023098744
2700,-0.029031642
2701,-0.022975493
2702,0.01836155
2703,-0.024572005
2704,0.033251114
2705,0.036824714
2706,-0.021455562
2707,-0.03289062
2708,0.0047689
2709,0.027243525
2710,-0.030082827
2711,-0.033543494
2712,-0.012667096
2713,-0.029092187
2714,-0.025424134
2715,0.015495392
2716,0.059721656
2717,-0.046621393
2718,0.0067888875
2719,0.0066724797
2720,-0.04002733
2721,0.025914494
2722,-0.012381614
2723,0.049548175
2724,-0.036192108
2725,-0.014996908
2726,0.016186886
2727,-0.040466495
2728,0.0071627465
2729,-0.025837645
2730,-0.0007714307
2731,-0.02351478
2732,-0.03889255
2733,-0.033428553
2734,-0.015102938
2735,-0.03154772
2736,-0.03173384
2737,0.049636398
2738,-0.026351737
2739,0.042893525
2740,-0.04357706
2741,-0.05242905
2742,0.015672807
2743,-0.043574262
2744,0.037238818
2745,-0.035589404
2746,0.031268757
2747,0.03735071
2748,-0.03253706
2749,-0.04320697
2750,-0.03937355
2751,-0.030606393
2752,-0.041700434
2753,-0.038312472
2754,0.008264275
2755,-0.04846541
2756,-0.028400654
2757,-0.030663678
2758,-0.02811723
2759,-0.029852733
2760,-0.022450294
2761,-0.0008430047
2762,-0.008093681
2763,-0.025603719
2764,-0.029059842
2765,-0.027059443
2766,-0.025104327
2767,0.03445024
2768,-0.029728988
2769,0.030090857
2770,-0.019836469
2771,0.10372119
2772,-0.052265447
2773,0.04813921
2774,-0.034315392
2775,0.060781926
2776,0.040417302
2777,0.056070905
2778,0.011426761
2779,-0.035268966
2780,-0.0236031
2781,-0.020259902
2782,-0.034084972
2783,0.00960028
2784,-0.032942474
2785,-0.021409977
2786,-0.019468196
2787,-0.029098753
2788,-0.008198705
2789,-0.03568383
2790,-0.0043101017
2791,-0.034650847
2792,-0.034063082
2793,0.06915388
2794,-0.039615624
2795,0.030180197
2796,-0.033334315
2797,-0.027092269
2798,-0.022260759
2799,-0.03959299
2800,0.06136466
2801,-0.004176796
2802,-0.04091814
2803,-0.03608777
2804,-0.012537823
2805,-0.031791158
2806,0.03591879
2807,0.056092348
2808,-0.044336535
2809,-0.034751657
2810,0.03653031
2811,-0.0388551
2812,-0.041496433
2813,-0.038674798
2814,-0.030066742
2815,0.00029015823
2816,0.02055704
2817,-0.021825343
2818,-0.038374618
2819,0.09346729
2820,-0.0349304
2821,-0.04596842
2822,-0.019209063
2823,-0.03790997
2824,0.04495621
2825,-0.0130867
2826,-0.011683678
2827,-0.027896589
2828,-0.030175585
2829,-0.013474562
2830,0.044332825
2831,-0.013425284
2832,-0.052859273
2833,-0.03201609
2834,-0.021571925
2835,-0.036632925
2836,0.0065196683
2837,0.00012343394
2838,-0.0161418
2839,-0.0105242
2840,-0.021823468
2841,-0.025305662
2842,-0.027963502
2843,-0.0048938897
2844,0.0045440085
2845,-0.04588225
2846,-0.043887917
2847,-0.0028336912
2848,0.06819713
2849,0.004909103
2850,-0.029878922
2851,-0.0017173643
2852,-0.03740144
2853,-0.0050249808
2854,-0.009490421
2855,-0.050328847
2856,-0.018894168
2857,-0.030819027
2858,-0.07268699
2859,-0.028184522
2860,0.05461907
2861,-0.031487465
2862,-0.011760452
2863,-0.034520138
2864,-0.03850742
2865,-0.053523958
2866,-0.025702944
2867,0.013470263
2868,0.081998505
2869,0.04541858
2870,-0.0056246286
2871,-0.041511018
2872,-0.031289
2873,-0.0032580849
2874,-0.03974648
2875,-0.041593358
2876,-0.031198932
2877,-0.036444724
2878,0.062278774
2879,-0.030838393
2880,-0.0252997
2881,-0.040692367
2882,-0.0016372354
2883,-0.044218447
2884,-0.031519864
2885,-0.026234664
2886,-0.028085293
2887,0.0039405697
2888,-0.032307584
2889,-0.013239234
2890,0.05269325
2891,-0.017388258
2892,-0.029003875
2893,-0.022252465
2894,-0.027528215
2895,0.026950829
2896,-0.010320165
2897,-0.017710315
2898,-0.030049926
2899,-0.043410856
2900,-0.011203013
2901,-0.06025457
2902,-0.035883963
2903,-0.033028033
2904,-0.041680694
2905,-0.04131742
2906,-0.026783371
2907,-0.03632125
2908,-0.01716546
2909,-0.027330091
2910,-0.03329629
2911,-0.011566078
2912,-0.045932774
2913,-0.010088377
2914,-0.017869178
2915,-0.03124474
2916,-0.0070130536
2917,-0.036034204
2918,0.0029425544
2919,-0.031176263
2920,-0.038132668
2921,-0.038265985
2922,-0.0314337
2923,-0.045974035
2924,-0.011715918
2925,-0.029325763
2926,-0.028284209
2927,-0.039566096
2928,-0.016744047
2929,-0.019124927
2930,-0.042359225
2931,0.025119428
2932,-0.02944794
2933,-0.0400776
2934,-0.03403384
2935,-0.03819641
2936,-0.044947784
2937,-0.034735743
2938,-0.03403442
2939,-0.03860396
2940,-0.049027976
2941,-0.04390633
2942,-0.024837324
2943,0.008233478
2944,0.024152055
2945,0.016205747
2946,-0.03793347
2947,-0.046780743
2948,-0.03363069
2949,-0.047015116
2950,-0.019611716
2951,-0.032137834
2952,-0.060070094
2953,-0.0084555065
2954,-0.006419197
2955,-0.024953809
2956,-0.020898126
2957,-0.007372504
2958,0.034535475
2959,-0.024220357
2960,-0.052837826
2961,-0.02633382
2962,-0.025486896
2963,-0.03532783
2964,0.01935463
2965,-0.016335562
2966,0.0032072056
2967,0.011426603
2968,-0.028977565
2969,-0.025313737
2970,0.06952174
2971,0.0151030375
2972,-0.01759203
2973,-0.03289907
2974,-0.04174327
2975,-0.014630889
2976,-0.043858677
2977,-0.002889947
2978,-0.027391538
2979,-0.010132219
2980,-0.03925615
2981,-0.0048350445
2982,-0.02662726
2983,0.045582045
2984,-0.021463467
2985,-0.031326834
2986,-0.06822896
2987,0.0695845
2988,-0.0452553
2989,-0.008353099
2990,0.024975903
2991,-0.034441568
2992,-0.021863498
2993,-0.05351558
2994,-0.02319204
2995,-0.015408058
2996,-0.052734666
2997,0.04741134
2998,-0.027662981
2999,-0.04131592
3000,-0.0059008314
3001,-0.0012781337
3002,0.023742568
3003,-0.043376815
3004,-0.034597293
3005,-0.034504052
3006,-0.045648813
3007,-0.00997716
3008,-0.017358232
3009,-0.040744394
3010,-0.001202287
3011,-0.04041736
3012,-0.03184775
3013,-0.027237887
3014,-0.028998982
3015,0.03120457
3016,-0.03104335
3017,-0.0008176301
3018,0.0014010402
3019,0.013197006
3020,-0.0289572
3021,-0.028873768
3022,-0.027681971
3023,-0.008387579
3024,-0.0012860221
3025,0.0357684
3026,0.05960766
3027,-0.012178363
3028,0.018260682
3029,-0.05569202
3030,-0.035793982
3031,0.00063581474
3032,-0.042876996
3033,-0.044613957
3034,-0.022940239
3035,0.063510254
3036,-0.032892082
3037,0.053319324
3038,-0.032697264
3039,0.050893802
3040,0.060383994
3041,-0.009847058
3042,-0.015750295
3043,-0.030963924
3044,-0.009109546
3045,-0.035263844
3046,-0.0047236723
3047,-0.030538619
3048,-0.0282891
3049,-0.0008257111
3050,-0.031621754
3051,-0.04592916
3052,-0.03360936
3053,0.04218269
3054,-0.028276261
3055,-0.039492764
3056,-0.0037499745
3057,-0.0064896345
3058,-0.042410847
3059,-0.009522818
3060,-0.043212008
3061,-0.03925649
3062,-0.024428869
3063,-0.03859076
3064,-0.038821444
3065,-0.0347388
3066,-0.011962813
3067,-0.03534448
3068,0.022685364
3069,-0.043606933
3070,-0.024702096
3071,-0.0035335128
3072,0.017010165
3073,0.04066591
3074,-0.023229804
3075,-0.010159254
3076,-0.04364562
3077,-0.038735144
3078,-0.019064484
3079,-0.03044899
3080,-0.060787328
3081,0.0033598098
3082,0.0022375635
3083,-0.0278315
3084,-0.030128023
3085,0.021334818
3086,0.019020695
3087,-0.021443948
3088,-0.05284628
3089,0.0010984752
3090,-0.018525908
3091,-0.03518258
3092,-0.013377936
3093,0.0035382782
3094,0.020503027
3095,0.0072616106
3096,-0.019616524
3097,-0.024053909
3098,0.037890073
3099,0.022530157
3100,0.0178151
3101,-0.015350115
3102,-0.047630455
3103,-0.007580054
3104,-0.0078900065
3105,-0.010828327
3106,-0.03166346
3107,0.0012607705
3108,-0.035799913
3109,0.02726737
3110,0.043193936
3111,0.022710005
3112,-0.029892348
3113,0.013108286
3114,-0.059727564
3115,-0.016338125
3116,0.03410011
3117,-0.009876635
3118,0.011631063
3119,0.0024258178
3120,0.016677594
3121,-0.052517448
3122,-0.023285441
3123,-0.016709417
3124,-0.02171865
3125,-0.036720853
3126,0.026422111
3127,-0.04240033
3128,0.02908546
3129,0.031897835
3130,-0.010837996
3131,-0.017480897
3132,-0.026380083
3133,-0.013376672
3134,0.035027828
3135,0.009823348
3136,-0.00038925992
3137,-0.03788268
3138,0.03248996
3139,-0.029190285
3140,0.012460014
3141,-0.025539678
3142,-0.02477191
3143,0.0035922257
3144,0.013630534
3145,0.00867822
3146,0.014042525
3147,0.02190724
3148,-0.029020038
3149,-0.026651828
3150,0.019073168
3151,0.0342954
3152,0.023580646
3153,0.017044295
3154,0.02150454
3155,0.013425734
3156,0.025526613
3157,-0.05427321
3158,-0.030356864
3159,0.01207804
3160,-0.040432423
3161,-0.042390138
3162,-0.016505783
3163,-0.013491515
3164,-0.018181255
3165,0.024873106
3166,-0.03376653
3167,0.015079238
3168,-0.045905173
3169,0.044188667
3170,-0.019386211
3171,0.0015885822
3172,0.03082707
3173,-0.03548938
3174,-0.01720625
3175,-0.018230356
3176,-0.0038278673
3177,0.004520894
3178,-0.031071357
3179,-0.031895667
3180,0.024647297
3181,0.022863759
3182,-0.022748625
3183,0.0086076
3184,0.020780228
3185,0.0057129283
3186,-0.038908515
3187,0.011026788
3188,-0.038493883
3189,0.012698357
3190,-0.032436687
3191,-0.037059702
3192,-0.04492292
3193,-0.034021128
3194,0.01000401
3195,-0.039347
3196,0.014118568
3197,-0.033097863
3198,-0.03293796
3199,-0.0029048654
3200,0.017162712
3201,0.009928275
3202,0.0006483897
3203,0.00910979
3204,-0.027455293
3205,0.011293206
3206,-0.017600296
3207,-0.010632515
3208,-0.012133424
3209,0.0044157486
3210,0.029912706
3211,-0.023165107
3212,-0.019916985
3213,0.0076728202
3214,0.030879699
3215,-0.012499425
3216,-0.026339648
3217,-0.00014547525
3218,0.0047593266
3219,-0.015542932
3220,0.030288083
3221,0.014464284
3222,-0.0036173835
3223,0.007026683
3224,0.027662631
3225,-0.016473135
3226,0.026176795
3227,0.035342146
3228,0.020119533
3229,-0.01626992
3230,-0.024315331
3231,0.0114339
3232,-0.00079481973
3233,0.01971531
3234,0.014282598
3235,0.015535234
3236,0.020665182
3237,0.020904087
3238,0.00093580165
3239,0.018497285
3240,0.025425414
3241,-0.006730852
3242,-0.048119724
3243,0.0049532023
3244,0.00971284
3245,0.018265633
3246,0.031520218
3247,-0.016845439
3248,-0.006729544
3249,-0.03966868
3250,-0.005912916
3251,0.009125214
3252,-0.0080935545
3253,-0.021183116
3254,0.024811504
3255,0.0056226174
3256,0.007390225
3257,0.023899172
3258,0.026241265
3259,-0.022308683
3260,-0.003251988
3261,-0.02360957
3262,0.018462326
3263,0.015401587
3264,-0.013666071
3265,-0.016875677
3266,0.022417603
3267,-0.037263546
3268,-0.015441947
3269,0.018390384
3270,-0.021825299
3271,0.01723025
3272,-0.000544107
3273,0.005472223
3274,0.014591241
3275,0.008480864
3276,-0.01407485
3277,0.023881417
3278,0.005962415
3279,0.032671046
3280,0.006445512
3281,0.040774457
3282,0.014251032
3283,0.016097318
3284,0.029169884
3285,0.01685464
3286,-0.01344968
3287,0.03209925
3288,-0.02635819
3289,-0.017322354
3290,0.015066344
3291,0.00038619005
3292,0.0188614
3293,0.015263237
3294,-0.017766846
3295,0.016575797
3296,0.002631959
3297,0.020196678
3298,-0.00489996
3299,0.0011650295
3300,0.016507419
3301,-0.028740885
3302,0.022784118
3303,0.013538161
3304,0.012008721
3305,0.0193604
3306,-0.013004409
3307,0.01276788
3308,-0.008075981
3309,0.01576507
3310,-0.0132417055
3311,0.033475894
3312,0.011932829
3313,0.012111
3314,-0.020904217
3315,0.029912569
3316,-0.046089366
3317,0.0011236873
3318,-0.031226633
3319,-0.013849577
3320,-0.0008521236
3321,-0.014098679
3322,0.003031794
3323,-0.017258156
3324,-0.001682243
3325,-0.015412098
3326,-0.004751914
3327,-0.0038200328
3328,0.0098111285
3329,0.010296628
3330,-0.0090188775
3331,-0.004438286
3332,-0.018939044
3333,-0.019784423
3334,-0.008405777
3335,-0.019244479
3336,-0.0058933757
3337,0.010888769
3338,-0.0029192867
3339,-0.017249228
3340,0.0071013067
3341,-0.0033556486
3342,0.002634932
3343,-0.00441737
3344,-0.0091534
3345,-0.012473384
3346,-0.0068677366
3347,-0.007938682
3348,0.020550175
3349,0.011637905
3350,0.0043223933
3351,0.0101386625
3352,-0.007277078
3353,0.007214573
3354,-0.0145417685
3355,0.017935274
3356,0.0039053815
3357,-0.0038752926
3358,0.004463792
3359,0.02045418
3360,0.004666765
3361,0.004540317
3362,0.023921678
3363,0.002163643
3364,0.0041425047
3365,0.015255782
3366,-0.0010584964
3367,0.02314631
3368,-0.0013075464
3369,0.005061291
3370,0.01152504
3371,-0.00025658862
3372,0.0036734988
3373,0.003679842
3374,0.0051864916
3375,0.00030007368
3376,-0.005177336
3377,0.013599793
3378,0.0035920497
3379,0.0066870437
3380,-0.0074729184
3381,0.0065150782
3382,0.011850917
3383,-0.0010707428
3384,-0.00297109
3385,-0.0101863
3386,0.011220449
3387,-0.010666307
3388,0.007245555
3389,-0.011068362
3390,0.0054680794
3391,0.008881064
3392,-0.017089922
3393,-0.011708844
3394,0.008269958
3395,-0.010414394
3396,-0.003418189
3397,-0.0011339422
3398,-0.0165742
3399,0.013360129
3400,-0.008530468
3401,0.0033564796
3402,-0.008290946
3403,0.004565268
3404,0.014923273
3405,0.0139626525
3406,0.023049612
3407,0.000773334
3408,0.0011476588
3409,0.0028599503
3410,0.005810532
3411,0.013393877
3412,0.005124085
3413,-0.016746307
3414,-0.0055158217
3415,-0.0011509883
3416,-0.010181697
3417,0.0012934054
3418,0.0054489183
3419,-0.006240509
3420,0.015552928
3421,0.009443022
3422,-0.016682448
3423,0.0050111194
3424,0.010502016
3425,0.002931973
3426,-0.004777481
3427,-0.009080527
3428,-0.0015911108
3429,-0.014119177
3430,-0.0074982806
3431,0.009723514
3432,0.020767732
3433,0.0068082656
3434,-0.0070730043
3435,0.016650697
3436,0.0028088868
3437,-0.0011526087
3438,-0.0076256017
3439,-0.010067677
3440,-0.005568867
3441,0.017449994
3442,0.0070002186
3443,0.0024457895
3444,0.012009379
3445,-0.002117978
3446,0.0024882199
3447,-0.011784726
3448,-0.007458199
3449,-0.0036253124
3450,0.005470084
3451,-0.021024387
3452,-0.0032877661
3453,-0.012614644
3454,0.007292679
3455,0.013245902
3456,-0.009486287
3457,0.017984023
3458,-0.0015258603
3459,0.0027572636
3460,-0.011585898
3461,0.013050537
3462,0.00046783805
3463,-0.008680617
3464,0.0012753941
3465,-0.008722698
3466,-0.016069291
3467,0.014873484
3468,-0.011886738
3469,0.0043049785
3470,0.013244886
3471,0.012051584
3472,-0.008446077
3473,0.0075374194
3474,0.00015288206
3475,0.007829253
3476,-0.0037749317
3477,0.00671469
3478,0.00015757326
3479,-0.004739202
3480,-0.015785618
3481,0.015297981
3482,0.0035560676
3483,0.007917523
3484,-0.008375496
3485,-0.0019209875
3486,0.0034090867
3487,0.0028527507
3488,-0.0010274617
3489,0.016984317
3490,-0.008673842
3491,-0.012442283
3492,0.009319899
3493,-0.0027483692
3494,-0.003752634
3495,-0.0019658164
3496,-0.001577011
3497,0.011278295
3498,-0.006358422
3499,-0.0053692525
3500,0.0021683306
3501,0.011219264
3502,-0.01919461
3503,0.011210424
3504,-0.0049850843
3505,0.010208724
3506,-0.005067588
3507,-0.0047474653
3508,0.004134228
3509,0.009829467
3510,0.0059723128
3511,-0.008070066
3512,0.009288452
3513,0.0072382623
3514,0.015097599
3515,-0.008917746
3516,0.0047826953
3517,-0.005516902
3518,-0.016457586
3519,-0.005726533
3520,-0.0064968793
3521,0.01100154
3522,-0.00059756724
3523,-0.0010918159
3524,0.0004291769
3525,-0.01131733
3526,0.006490685
3527,-0.009636536
3528,-0.00346761
3529,-0.018297354
3530,-0.0024564336
3531,0.018603958
3532,-0.0005866114
3533,0.0006731629
3534,-0.0046594692
3535,-0.0026606375
3536,0.0097193085
3537,-0.0066252532
3538,0.0070295106
3539,-0.009225288
3540,0.013358206
3541,-0.0033736636
3542,-0.0001717906
3543,0.012527489
3544,0.00297829
3545,-0.0112263
3546,-0.0057051764
3547,-0.00594725
3548,0.0024011375
3549,-0.016910464
3550,-0.007321579
3551,-0.008294336
3552,0.0054249004
3553,-0.014563854
3554,-0.0054699588
3555,-0.00466217
3556,0.0066386517
3557,-0.01626176
3558,-0.009051848
3559,0.011560844
3560,-0.017441541
3561,-0.006118291
3562,-0.003497984
3563,-0.012429136
3564,0.01929232
3565,-0.010933623
3566,0.004871501
3567,0.009183228
3568,-0.000966076
3569,0.008574135
3570,0.006355312
3571,0.0048878724
3572,0.0053865784
3573,0.0017447275
3574,0.00042658806
3575,-0.00011137494
3576,-0.01194746
3577,0.0037951635
3578,-0.010473056
3579,0.005725802
3580,-0.005618269
3581,-0.010425739
3582,0.017841078
3583,-0.015558132
3584,-0.0011016753
3585,0.0015128127
3586,-0.0052887523
3587,0.00134265
3588,0.019885225
3589,0.0062608058
3590,0.003959884
3591,0.000687545
3592,0.006749792
3593,-0.00024792648
3594,0.016442247
3595,0.0015927841
3596,-0.011098632
3597,-0.011067923
3598,-0.0071715782
3599,0.011431728
3600,0.011747195
3601,3.171105e-05
3602,-0.0044586114
3603,0.0060711047
3604,0.0054060374
3605,-0.016010279
3606,-0.008730512
3607,0.014078814
3608,-0.0077108196
3609,-0.0075536864
3610,0.010113811
3611,-0.005259696
3612,-0.00038804827
3613,0.012402021
3614,0.017894348
3615,0.0007169279
3616,0.011590793
3617,-0.012434995
3618,0.0077875936
3619,-0.010026298
3620,-0.013687436
3621,0.0019312071
3622,0.0097712735
3623,-0.010567092
3624,-0.014622774
3625,-0.00037667068
3626,0.0014056853
3627,0.006488624
3628,0.0014282984
3629,0.014274072
3630,-0.002675883
3631,-0.009697397
3632,-0.008236791
3633,0.006709771
3634,-0.01341801
3635,-0.010592413
3636,0.004683591
3637,-0.019696137
3638,0.00027913525
3639,0.00062164426
3640,0.0057457415
3641,-0.0008281502
3642,-0.007861968
3643,-0.0124909915
3644,0.0049331253
3645,0.018354371
3646,0.0034022564
3647,0.011639843
3648,-0.011535085
3649,0.014986171
3650,-0.014796807
3651,-0.0068178484
3652,-0.014033912
3653,-0.004950608
3654,-0.010896842
3655,-0.008061313
3656,0.0019792349
3657,0.0029285767
3658,0.0011404222
3659,-0.008898914
3660,-0.007312426
3661,-0.0069587617
3662,0.0007778377
3663,0.018415254
3664,-0.002610914
3665,0.0014999096
3666,0.004151871
3667,0.008108511
3668,0.013168259
3669,0.004988005
3670,-0.014064761
3671,-0.004923087
3672,0.0037888852
3673,-0.008421436
3674,0.01140619
3675,-0.0016673425
3676,0.012622954
3677,0.0061566154
3678,-0.013400806
3679,0.0012149692
3680,0.0048322007
3681,-0.008358691
3682,0.0019406194
3683,-0.004129971
3684,0.005411862
3685,-0.008183935
3686,-0.0017252549
3687,0.0060320226
3688,0.009221034
3689,0.0130464565
3690,0.013997884
3691,-0.00041210113
3692,-0.0050774687
3693,0.0026636552
3694,0.013346029
3695,0.0010978474
3696,0.0074733607
3697,-0.010306164
3698,-0.01884417
3699,0.005351333
3700,0.002590968
3701,-0.016577836
3702,-0.01777845
3703,0.0018096397
3704,-0.014289503
3705,-0.014349503
3706,-0.018030668
3707,-0.001977065
3708,0.003411748
3709,0.0033139256
3710,-0.019691804
3711,3.181285e-05
3712,0.006989092
3713,0.0141670285
3714,0.0052980296
3715,0.007133923
3716,0.008039117
3717,-0.0036675786
3718,0.014706696
3719,0.010885719
3720,-0.0064421496
3721,-0.010834189
3722,-0.014763004
3723,0.0018206197
3724,0.008332447
3725,0.002174248
3726,-0.0038994881
3727,-0.0039049943
3728,0.0052234144
3729,0.0040461537
3730,-0.012431772
3731,0.003769757
3732,0.002736904
3733,0.0088098245
3734,-0.011465677
3735,0.0091040125
3736,0.008339353
3737,0.0022003988
3738,-0.00904885
3739,0.0073772073
3740,-0.010520488
3741,0.015732057
3742,0.016881716
3743,0.006890178
3744,-0.0027349903
3745,-0.0013748348
3746,-0.01269272
3747,-0.0019690057
3748,-0.005338878
3749,0.006610635
3750,-0.008107525
3751,6.271897e-05
3752,-0.0005972017
3753,-0.018076424
3754,-0.0028340584
3755,-0.0062150024
3756,-0.0029557762
3757,0.016786134
3758,-0.0046434226
3759,0.008901063
3760,-0.0043745073
3761,0.005698488
3762,0.0005081603
3763,0.0020593402
3764,0.0036112892
3765,-0.0029644736
3766,0.013459518
3767,0.004807774
3768,0.0015757538
3769,-0.0053196517
3770,-0.011726988
3771,0.0069199363
3772,-0.0035108377
3773,-0.0031608779
3774,-0.0080807675
3775,0.010861135
3776,-0.000505741
3777,0.006530274
3778,0.012695057
3779,0.0026978385
3780,0.0057292655
3781,0.0026137582
3782,0.014967206
3783,-0.012847
3784,0.0048099724
3785,0.007795916
3786,-0.017696107
3787,0.0010271559
3788,0.005845946
3789,0.0087838005
3790,0.00029170886
3791,-0.004978671
3792,0.0052660927
3793,0.0057022166
3794,0.007135326
3795,-0.0051117055
3796,-0.004688796
3797,0.009785576
3798,0.0127366055
3799,-0.003950082
3800,-0.016884409
3801,0.017300101
3802,-0.0046055643
3803,0.0030640557
3804,-0.0037025309
3805,-0.0015951698
3806,0.0033675176
3807,0.019760884
3808,-0.0044418573
3809,0.01112159
3810,-0.0033544695
3811,-0.0056073526
3812,0.009214684
3813,0.011789728
3814,0.010349858
3815,0.0088607455
3816,0.015332409
3817,0.0024378777
3818,-0.0019056698
3819,-0.008175093
3820,-0.009997452
3821,0.003547222
3822,0.004063587
3823,0.0053671375
3824,-0.0019476062
3825,-0.0015523356
3826,0.002295653
3827,-0.0027643437
3828,9.1000074e-05
3829,-0.00055743963
3830,-0.007739855
3831,-0.010129019
3832,-0.0037631236
3833,-0.011830783
3834,-0.0002128335
3835,0.010321585
3836,-0.016889676
3837,0.006454375
3838,-0.006451991
3839,-0.008821932
3840,0.01316157
3841,0.012310911
3842,0.014125611
3843,-0.016958533
3844,-0.013848233
3845,0.0049982537
3846,0.01724118
3847,-0.009838095
3848,-0.0025241296
3849,-0.00669313
3850,0.00854165
3851,0.009827639
3852,0.012363668
3853,-0.0021029217
3854,0.010513081
3855,0.002103922
3856,-0.0067207734
3857,0.010785502
3858,-0.00406811
3859,0.0011468426
3860,0.0068810163
3861,0.00856066
3862,-0.0030675451
3863,-0.010224131
3864,0.0014271912
3865,-0.004196135
3866,0.003108427
3867,-0.001394722
3868,0.0043905303
3869,-0.018560542
3870,-0.002045037
3871,-0.011637366
3872,-0.01739915
3873,-0.008697144
3874,-0.010014846
3875,-0.008289422
3876,-0.006379517
3877,-0.00068487984
3878,-0.012367896
3879,-0.0017377152
3880,0.0057340497
3881,-0.012682993
3882,0.00979387
3883,0.0030535236
3884,0.00213937
3885,0.009397333
3886,0.00012672142
3887,0.006992923
3888,-0.01661417
3889,-0.0044172206
3890,-0.018643865
3891,0.0006748657
3892,0.0054947054
3893,0.0029664831
3894,-0.012272613
3895,-0.007058078
3896,0.0053311186
3897,-0.007899488
3898,0.009555511
3899,0.006395613
3900,0.0061385892
3901,0.0059874346
3902,-0.013885271
3903,-0.000700075
3904,0.0051328866
3905,0.0038629943
3906,-0.011993179
3907,0.013028044
3908,-0.00059795135
3909,0.015779745
3910,-0.0056955097
3911,0.010010387
3912,-0.004634694
3913,0.014084088
3914,-0.016676545
3915,0.007179384
3916,0.017984709
3917,0.009465761
3918,0.0047399984
3919,-0.0027557595
3920,0.0046233335
3921,0.0012092332
3922,0.0033132404
3923,-0.0044230158
3924,-0.012433399
3925,-0.012240346
3926,-0.0032993676
3927,-0.0025137444
3928,-0.0049086614
3929,0.0057037584
3930,-0.002469503
3931,-0.014369889
3932,-0.002396465
3933,0.00031952088
3934,-0.010850311
3935,0.0059157545
3936,-0.009427948
3937,-0.0054446235
3938,-0.0002187309
3939,-0.007651383
3940,0.013684164
3941,0.0198142
3942,-0.005255235
3943,0.0074010766
3944,0.0068928334
3945,-0.0056338147
3946,-0.0071180803
3947,0.016307315
3948,0.011219625
3949,0.0022974045
3950,0.007168062
3951,-9.3425486e-05
3952,-0.006387053
3953,0.0042190505
3954,0.0019459773
3955,0.0010561149
3956,0.01665295
3957,0.0029685677
3958,-0.00921128
3959,-0.009619514
3960,-0.00565488
3961,-0.01781411
3962,0.00045517556
3963,0.0042660283
3964,-0.008229796
3965,-0.0073173735
3966,-0.0028213095
3967,0.0067138043
3968,-0.01999883
3969,0.011028183
3970,0.0016736218
3971,0.010286457
3972,-0.009850277
3973,-0.009319569
3974,0.0021522879
3975,-0.002299546
3976,-0.003073764
3977,-0.010967497
3978,0.009386427
3979,0.006804571
3980,-0.013764951
3981,-0.005429089
3982,-0.014252135
3983,0.01340147
3984,0.0110252155
3985,-0.011011018
3986,0.00013634044
3987,0.012041464
3988,-0.012335076
3989,0.0051290914
3990,-0.006483936
3991,0.0010491936
3992,-0.0013550052
3993,-0.002039568
3994,-0.001534784
3995,-0.010200647
3996,0.011713579
3997,0.013474286
3998,-0.009718498
3999,-0.0076424046
4000,-0.009691821
4001,0.0027982087
4002,-0.0108701475
4003,0.012156218
4004,-0.0015873618
4005,-0.0026534754
4006,0.006327303
4007,0.01603209
4008,0.0018071022
4009,-0.016538495
4010,0.008433275
4011,-0.005749556
4012,-0.015873864
4013,0.002083285
4014,-0.0018222999
4015,0.0019475801
4016,0.009521822
4017,-0.014644704
4018,-0.010773757
4019,-0.008006321
4020,0.01324878
4021,0.002733469
4022,0.017007498
4023,-0.000544314
4024,0.004616796
4025,0.0028389548
4026,0.006611693
4027,0.0058178245
4028,0.009239197
4029,0.0018494622
4030,-0.0035759462
4031,-0.0017407688
4032,-0.0039677615
4033,-0.007998352
4034,0.019849896
4035,0.01846742
4036,-0.010099493
4037,0.014312626
4038,-0.0012321088
4039,0.004917699
4040,-0.009131673
4041,0.002875832
4042,-0.0008770973
4043,-0.005825922
4044,-0.0024940658
4045,0.0045834817
4046,-0.005197045
4047,-0.0010806535
4048,-0.0019665018
4049,0.005778854
4050,0.0055720345
4051,0.016364198
4052,-0.011973639
4053,0.009194331
4054,0.0047993935
4055,-0.0044013546
4056,-0.0065766815
4057,0.01086331
4058,-0.0070800935
4059,-0.0049502365
4060,-0.007483619
4061,0.00021304516
4062,-0.011225237
4063,-0.012624503
4064,0.0052694455
4065,0.010134192
4066,-0.002405405
4067,-0.004819855
4068,-0.002020169
4069,-0.012378565
4070,0.0044036433
4071,0.0023181664
4072,0.00036483243
4073,-0.0053968644
4074,-0.0055440613
4075,0.004117003
4076,0.005412592
4077,0.0055191545
4078,-0.01321501
4079,-0.0135880215
4080,-0.0024361291
4081,0.0053362255
4082,-0.0036105874
4083,0.0050013172
4084,-0.00016011062
4085,0.0026914969
4086,-0.008200713
4087,-0.010978794
4088,-0.002139455
4089,-0.013626878
4090,-0.009556042
4091,0.0069376826
4092,0.01575218
4093,0.01352862
4094,-1.7337014e-05
4095,-0.014893734
