Sno,Weight
0,-0.040937837
1,-0.010353765
2,-0.016667366
3,0.012912239
4,-0.007439193
5,0.020249631
6,-0.0024492536
7,-0.044801895
8,0.00810062
9,0.007078101
10,0.027895208
11,-0.021598082
12,-0.009820795
13,0.007903437
14,-0.07594643
15,0.025172628
16,0.017944012
17,0.043115452
18,0.023458114
19,-0.05342942
20,-0.0023589395
21,-0.046345
22,-0.006663636
23,-0.030056825
24,-0.031396005
25,-0.0036633925
26,-0.0016136531
27,-0.015666457
28,-0.06825577
29,0.0052749147
30,-0.044395678
31,0.02452818
32,0.007977722
33,0.032970197
34,-0.019830335
35,-0.047688037
36,-0.032194205
37,-0.0073812413
38,-0.006769525
39,-0.031070057
40,-0.01049064
41,-0.035884984
42,0.040204503
43,-0.032197986
44,0.00879459
45,0.011380029
46,-0.00014395751
47,-0.052085053
48,0.016190821
49,-0.03855729
50,0.010674451
51,0.039017573
52,0.029935874
53,-0.024503168
54,-0.046766307
55,0.020920716
56,0.010988155
57,0.022321492
58,0.045762114
59,0.0006253421
60,0.010352196
61,0.008521532
62,0.0055816937
63,0.0076489314
64,0.020392688
65,-0.015348305
66,-0.0067399237
67,-0.035500005
68,-0.037720345
69,-0.027067944
70,-0.0027934825
71,0.04606763
72,0.024233416
73,0.01694793
74,-0.0024954237
75,0.030785354
76,0.01726743
77,-0.053020693
78,-0.052049547
79,0.012095336
80,-0.015362824
81,-0.03451483
82,0.026778858
83,-0.044747327
84,-0.007230309
85,-0.027929302
86,0.0027950853
87,-0.006293801
88,-0.00577764
89,0.0073710703
90,-0.04781989
91,-0.0033886537
92,0.010499401
93,-0.024895892
94,0.014998638
95,0.024288235
96,-0.0007915039
97,-0.038963746
98,0.022064613
99,0.009720142
100,-0.047159657
101,-0.030544452
102,0.0036241116
103,-0.00056148676
104,-0.052320637
105,0.010604583
106,-0.019768503
107,-0.0027376527
108,0.022507275
109,0.00223007
110,-0.036520872
111,-0.025876198
112,-0.008676627
113,0.00033047824
114,0.012226044
115,0.04909393
116,-0.045890454
117,-0.04269245
118,-0.009790186
119,-0.011480505
120,0.01079551
121,-0.022036437
122,0.04872792
123,-0.05420526
124,0.022974283
125,0.016083287
126,0.014086516
127,-0.040904325
128,0.03889274
129,0.053377442
130,0.029489541
131,0.0047902972
132,0.00825624
133,0.009178259
134,0.05066076
135,0.027374174
136,0.020567054
137,0.038030453
138,0.022826863
139,0.022875255
140,0.027585573
141,-0.007277293
142,0.035151552
143,0.020370672
144,0.008160846
145,-0.0050248825
146,0.022177469
147,-0.053457145
148,0.04470343
149,0.037208542
150,0.0022390382
151,0.042377315
152,0.0072520226
153,0.05150728
154,0.028955875
155,0.035723258
156,0.034509443
157,0.035783038
158,0.022694146
159,-0.057386205
160,0.0076185768
161,0.01684822
162,0.03651302
163,0.044725467
164,0.021156702
165,0.04854185
166,0.035172403
167,0.0153789595
168,0.05313101
169,0.0008885836
170,0.020686977
171,0.01947757
172,-0.060265336
173,0.04097855
174,0.06578195
175,0.06687143
176,0.024458721
177,-0.038642917
178,0.041172612
179,-0.046218835
180,0.005113616
181,0.027052071
182,0.023873992
183,-8.4146406e-05
184,-0.059377704
185,0.00874343
186,0.006253711
187,0.010515075
188,0.028405748
189,0.0017387043
190,0.04068712
191,0.015904171
192,0.009305108
193,0.052430283
194,-0.049474187
195,0.025044713
196,0.014048374
197,-0.044807445
198,0.045727026
199,0.037746508
200,0.013752806
201,0.025694596
202,0.037299573
203,-0.053358737
204,0.010546657
205,0.08254571
206,0.01791693
207,0.037250802
208,0.023831418
209,-0.047447164
210,0.028879765
211,0.05707618
212,-0.0006189384
213,0.028797505
214,0.006892278
215,0.025030715
216,0.035758134
217,0.008455744
218,0.014494952
219,0.029202012
220,-0.058130063
221,0.0068348413
222,0.014084162
223,0.017159522
224,-0.001830253
225,0.05024351
226,-0.04068223
227,0.04611838
228,0.039915968
229,0.017233133
230,0.022875547
231,0.04226468
232,0.024834136
233,-0.019029416
234,0.020962868
235,-0.0073550493
236,0.018954935
237,-0.055114686
238,-0.07171864
239,-0.011821191
240,0.038512666
241,-0.04047336
242,0.02786834
243,0.012413144
244,0.010071792
245,-0.042660113
246,0.027400099
247,0.022745444
248,0.018864542
249,0.036502533
250,0.013463235
251,0.04545485
252,0.023424232
253,0.017438697
254,-0.0007537624
255,0.051820695
256,0.04294543
257,0.035926845
258,0.034000706
259,-0.042960834
260,0.028452314
261,0.005867269
262,-0.05636139
263,-0.017502572
264,0.012724288
265,0.01068372
266,0.03600083
267,-0.042124018
268,0.02572514
269,-0.051995106
270,0.03170251
271,0.010239718
272,0.0079776
273,0.038186975
274,0.029860625
275,-0.050944407
276,-0.03893046
277,0.022010623
278,0.0027625053
279,-0.030071186
280,0.044380665
281,-0.054090794
282,0.032406893
283,0.032516986
284,0.09008273
285,0.013682157
286,0.035741486
287,0.07167892
288,0.0010131146
289,-0.0011541621
290,0.03351945
291,0.041916616
292,0.026494438
293,-0.04504969
294,0.036659252
295,0.052104462
296,-0.012351779
297,0.040345818
298,-0.037187614
299,0.038613196
300,0.02805928
301,0.04176914
302,0.06321868
303,-0.009738368
304,0.021204924
305,0.04133941
306,-0.034467127
307,-0.010647451
308,0.0041900277
309,0.025737738
310,0.024978273
311,0.014226055
312,-0.050422996
313,0.016961366
314,0.015206342
315,0.0352471
316,0.012646019
317,0.018701307
318,-0.04709823
319,0.057997897
320,0.029862203
321,-0.04031083
322,0.05580274
323,0.009787265
324,0.01127361
325,0.006760451
326,-0.038398746
327,-0.012762742
328,-0.058057815
329,0.03999926
330,-0.0033540356
331,0.009783633
332,0.0030613483
333,-0.03799447
334,0.0521227
335,0.02610741
336,0.025127966
337,-0.002991705
338,0.021090325
339,-0.021269886
340,0.030938435
341,0.03251416
342,0.020113703
343,0.010664716
344,-0.012087055
345,0.009464021
346,0.009381476
347,-0.0436815
348,0.037560366
349,0.048347127
350,0.009816938
351,0.036712516
352,0.015867677
353,0.046403956
354,-0.0020543984
355,-0.039951753
356,0.024485033
357,0.033843894
358,0.017941004
359,-0.04230805
360,0.036919083
361,0.009070464
362,0.011180195
363,0.033423454
364,0.012812225
365,0.041129213
366,-0.06248314
367,0.02475109
368,0.026358724
369,0.0360107
370,-0.036142062
371,0.0061519253
372,0.047373302
373,0.042133655
374,0.014711877
375,0.02895393
376,0.02506912
377,0.029445717
378,0.00855329
379,0.04231493
380,0.021791367
381,-0.02725901
382,0.0011138706
383,0.02680745
384,0.040847197
385,0.05391364
386,-0.04267719
387,0.024656631
388,-0.029775169
389,0.011225173
390,-0.056436963
391,0.03515221
392,-0.03356964
393,0.015731247
394,-0.034356788
395,0.027715491
396,-0.022422561
397,-0.033882797
398,0.0266571
399,-0.040029284
400,-0.02968269
401,0.03933324
402,-0.016151255
403,0.040627208
404,0.043102928
405,0.036558162
406,0.04430478
407,0.028698308
408,0.045646284
409,-0.054089364
410,-0.018879201
411,-0.014610643
412,0.08525399
413,-0.03762986
414,0.019109715
415,-0.031847976
416,0.015645966
417,-0.028957898
418,-0.042538382
419,0.050460853
420,0.01372449
421,-0.04083176
422,0.009664277
423,0.006445152
424,0.04307982
425,0.03513538
426,-0.05411051
427,0.02082477
428,0.046498507
429,-0.00062494393
430,-0.026915656
431,-0.00410858
432,-0.023474026
433,-0.030507531
434,0.03937612
435,0.04510047
436,0.020013986
437,-0.03198301
438,-0.03413056
439,0.011949067
440,-0.0021687853
441,0.014010673
442,0.012760916
443,0.028326567
444,-0.037409898
445,0.028194068
446,-0.04700417
447,-0.024882652
448,0.04454795
449,0.04888918
450,-0.06687729
451,0.01872902
452,0.017293504
453,0.040601492
454,0.048582125
455,-0.08801903
456,0.022014953
457,-0.033465005
458,-0.028370425
459,-0.044754624
460,0.024490284
461,0.035684112
462,0.04339259
463,-0.04473654
464,-0.04629378
465,0.05121567
466,-0.029453589
467,0.042055964
468,0.009043902
469,0.020002848
470,-0.027842661
471,0.0014974411
472,0.024281675
473,-0.009942966
474,0.078881904
475,0.025160106
476,-0.050691918
477,0.04296323
478,-0.0005282784
479,0.013226326
480,0.02638285
481,0.006406705
482,0.037710685
483,-0.03980839
484,0.056292035
485,0.011735648
486,0.02706587
487,0.04448331
488,-0.0004583702
489,0.008760417
490,-0.027105296
491,-0.027959628
492,0.011368344
493,-0.05162227
494,0.034323726
495,-0.02586498
496,-0.022090686
497,0.047111135
498,0.025398556
499,-0.05721168
500,0.037064116
501,0.042882882
502,-0.031025115
503,-0.029202214
504,0.022091586
505,0.021866767
506,0.0034880934
507,0.061630346
508,-0.02300878
509,0.043509774
510,0.031138433
511,-0.04089691
512,0.05611946
513,0.0767839
514,-0.042703025
515,-0.04290854
516,-0.03668075
517,-0.032023896
518,0.04916404
519,0.04997617
520,-0.040058825
521,0.023256833
522,-0.058871716
523,0.033619247
524,0.021562696
525,-0.026418336
526,0.07628746
527,-0.0531456
528,0.02489584
529,-0.0045070145
530,-0.009527415
531,0.062290322
532,-0.03891041
533,0.03501801
534,-0.051387046
535,0.03463833
536,0.041299
537,0.052737832
538,-0.027092228
539,-0.048864096
540,-0.030787723
541,-0.042083643
542,-0.037649997
543,-0.018713234
544,0.01355914
545,-0.056679085
546,-0.044128403
547,0.037899744
548,-0.035175238
549,0.037624806
550,0.0087751355
551,-0.040342677
552,0.028342407
553,-0.01701106
554,-0.00067542656
555,-0.030934667
556,-0.06020734
557,0.018507874
558,-0.0011003364
559,0.04619439
560,-0.0342436
561,0.04156155
562,-0.034354698
563,-0.036342572
564,-0.025208179
565,0.023772132
566,0.01263041
567,-0.025903044
568,-0.060434718
569,-0.024019677
570,-0.002991709
571,-0.032544985
572,0.025664968
573,-0.031756196
574,0.044696264
575,-0.0067169596
576,0.038460564
577,-0.036765948
578,-0.06676821
579,-0.024777902
580,0.051076736
581,0.04763141
582,-0.03841827
583,-0.039756533
584,0.02980803
585,-0.052062683
586,-0.028916916
587,0.044272184
588,-0.03775518
589,0.0012405325
590,-0.036515933
591,-0.044745374
592,-0.046283226
593,0.057322968
594,-0.030943163
595,0.05800801
596,-0.021756398
597,-0.029718155
598,-0.027704764
599,0.012993287
600,-0.031755146
601,-0.030065862
602,0.033715826
603,-0.043749113
604,0.03317178
605,-0.03003891
606,-0.02850725
607,0.0022762741
608,-0.032215934
609,-0.047334533
610,0.03660217
611,0.035949823
612,0.067233555
613,-0.029014302
614,0.012016972
615,-0.0409805
616,0.029348072
617,0.013857997
618,0.016758675
619,0.03305952
620,-0.040883295
621,0.03918003
622,-0.053696387
623,0.030273005
624,-0.024711905
625,0.036423627
626,0.032769866
627,-0.019292554
628,0.035206985
629,0.03115009
630,0.017444972
631,-0.02538228
632,-0.021418372
633,-0.022027949
634,-0.03031708
635,0.08874897
636,-0.021983797
637,-0.061946377
638,-0.039595287
639,-0.04092211
640,0.028827408
641,0.0031804238
642,0.048035134
643,0.036167473
644,0.04125506
645,-0.038253862
646,-0.056123722
647,-0.008466145
648,-0.04016186
649,0.00021216356
650,-0.05889362
651,-0.036163986
652,-0.022445373
653,-0.046318375
654,0.03816667
655,0.035681367
656,-0.028993081
657,-0.02691103
658,-0.008429587
659,-0.03442422
660,0.028416153
661,0.023523092
662,0.045371138
663,-0.019968165
664,0.014655493
665,-0.053503748
666,-0.053762075
667,-0.045471225
668,0.02899412
669,0.036930706
670,-0.04096588
671,-0.024566473
672,-0.02379441
673,-0.024681477
674,-0.044100963
675,0.03659362
676,-0.032682724
677,0.043560248
678,0.008527484
679,-0.033092838
680,-0.0016573211
681,-0.026948111
682,-0.0020658849
683,-0.030548202
684,-0.06027382
685,-0.007877835
686,-0.002555034
687,-0.016489174
688,0.031614512
689,-0.038667176
690,0.03264227
691,0.03233029
692,0.015216244
693,-0.031837724
694,0.05320486
695,-0.026018616
696,-0.06751778
697,-0.02834243
698,-0.0034575085
699,-0.022783814
700,-0.028827734
701,-0.030430442
702,0.049122382
703,-0.012347146
704,-0.0021152955
705,-0.040300958
706,0.047172584
707,-0.03438343
708,-0.018147483
709,-0.035158798
710,-0.03842764
711,-0.021625785
712,-0.058004446
713,-0.052849516
714,0.03834434
715,-0.04993081
716,-0.007678971
717,-0.023160798
718,0.02120452
719,-0.044876095
720,0.039150413
721,-0.039385706
722,-0.043882854
723,0.026875632
724,-0.019613631
725,-0.029696673
726,0.034639627
727,-0.023545552
728,-0.055972096
729,-0.032523096
730,0.035945863
731,0.031266358
732,-0.05068822
733,-0.030053904
734,-0.03425707
735,0.002246882
736,-0.04525949
737,-0.037904415
738,-0.03513878
739,0.03897925
740,0.054163817
741,-0.029482495
742,-0.014061268
743,-0.04382812
744,0.048803132
745,-0.026131712
746,-0.026587723
747,-0.028048186
748,-0.03935778
749,-0.044257633
750,0.063466005
751,-0.017092668
752,0.0411211
753,-0.0315815
754,-0.03495577
755,-0.018471472
756,0.032989006
757,-0.037110314
758,-0.030996082
759,0.046660483
760,-0.018967848
761,-0.022019424
762,-0.018961769
763,0.038503166
764,-0.0068095
765,0.028421767
766,-0.05016666
767,0.03500632
768,0.0034913612
769,0.0050977957
770,-0.042632483
771,-0.038682986
772,-0.03666168
773,-0.06121293
774,-0.022659522
775,-0.04103893
776,0.029412732
777,-0.024135727
778,-0.041194115
779,-0.029559523
780,-0.020900019
781,0.053033754
782,0.01638537
783,-0.03190964
784,-0.013932976
785,-0.041279837
786,-0.02994334
787,-0.03856651
788,-0.021784538
789,-0.031455345
790,-0.051396713
791,-0.01551355
792,-0.0023087107
793,-0.022035737
794,0.050077625
795,-0.048709642
796,-0.028999666
797,-0.042066447
798,-0.03395748
799,-0.018837629
800,-0.026458845
801,-0.019770242
802,-0.003328929
803,-0.008994767
804,-0.044720218
805,-0.041479252
806,-0.020463891
807,-0.0404519
808,0.0056489576
809,-0.03570922
810,-0.0045073093
811,-0.03217829
812,-0.046864938
813,-0.032255724
814,0.013397848
815,-0.045433003
816,-0.033556737
817,-0.02666968
818,-0.028778706
819,-0.0417223
820,-0.022123486
821,-0.024929047
822,-0.030358529
823,-0.03453367
824,0.044970542
825,-0.059184033
826,-0.005705249
827,-0.020284506
828,-0.0180603
829,-0.03489156
830,-0.041213114
831,-0.012044893
832,-0.0194325
833,-0.0047413977
834,0.049065296
835,-0.024706528
836,-0.025303435
837,-0.044838797
838,-0.0068492834
839,-0.0012102133
840,-0.03268563
841,-0.05204969
842,-0.02614852
843,-0.04695647
844,-0.008176364
845,0.0036720487
846,-0.05202963
847,0.037171356
848,-0.04131964
849,-0.044511303
850,0.055278096
851,0.005176937
852,-0.020153929
853,-0.028312042
854,-0.027171459
855,-0.03789702
856,0.056036897
857,-0.040800624
858,0.025213888
859,-0.03962696
860,-0.022251757
861,-0.030036366
862,0.028839044
863,-0.021623481
864,0.043925557
865,-0.04840383
866,-0.03975078
867,-0.038166486
868,0.01433745
869,-0.02806679
870,-0.011899638
871,-0.039358024
872,-0.037170637
873,-0.026108671
874,-0.027097749
875,-0.027899997
876,-0.0439524
877,-0.053711824
878,-0.07200879
879,-0.017572304
880,-0.024885906
881,-0.03776326
882,-0.029296074
883,0.026182078
884,0.0023220659
885,-0.033274725
886,-0.02764926
887,-0.030726274
888,-0.023200108
889,-0.02204332
890,-0.02222678
891,0.013410799
892,0.00809318
893,0.014780961
894,0.032449983
895,-0.0319738
896,-0.0019812123
897,0.00782802
898,-0.0373342
899,-0.03280562
900,-0.035396248
901,0.030805318
902,-0.020541243
903,-0.04398072
904,-0.045974243
905,-0.01824611
906,-0.021221058
907,-0.028148938
908,-0.022460818
909,-0.05646254
910,-0.0012902
911,-0.008586933
912,-0.021348456
913,-0.043426216
914,0.0021830364
915,-0.031816836
916,-0.012298071
917,-0.0029477407
918,-0.017231641
919,-0.013252093
920,0.022473507
921,-0.022621745
922,-0.05942052
923,-0.03906208
924,-0.005555441
925,-0.025488192
926,-0.02028098
927,-0.015352262
928,-0.04250638
929,0.019156905
930,0.0012299503
931,-0.0101607395
932,0.038569324
933,-0.044798903
934,-0.042553566
935,-0.0077686566
936,0.0033811592
937,-0.012860372
938,-0.022781054
939,-0.016281363
940,-0.034868486
941,-0.041205574
942,0.0132303815
943,-0.04572298
944,-0.03426199
945,-0.02832969
946,-0.028214205
947,-0.034885384
948,-0.027900511
949,-0.019679695
950,-0.04503359
951,0.041632254
952,-0.0735112
953,0.03957913
954,0.005298993
955,-0.02324819
956,-0.013916543
957,0.045284625
958,-0.035400767
959,-0.0074855178
960,-0.035412468
961,-0.015648674
962,-0.0441956
963,-0.012408949
964,-0.038723104
965,-0.03607648
966,-0.011005186
967,-0.027570626
968,-0.033479065
969,-0.030698426
970,-0.025507638
971,-0.04648531
972,-0.013963294
973,0.008731186
974,-0.022406243
975,-0.033685785
976,-0.027893681
977,-0.033915225
978,-0.0518548
979,0.0061990526
980,-0.026046172
981,-0.02786247
982,-0.026746545
983,0.040206756
984,-0.05181485
985,-0.0448011
986,-0.022169938
987,-0.038157053
988,-0.023942268
989,-0.029792495
990,-0.046888772
991,-0.042447377
992,-0.026560463
993,0.04004375
994,-0.039574064
995,-0.031676553
996,0.021365423
997,0.0021382878
998,-0.017457115
999,-0.009666141
1000,-0.052375946
1001,-0.025974162
1002,-0.016455717
1003,-0.025441607
1004,0.034522388
1005,-0.030890234
1006,-0.056542933
1007,-0.015758421
1008,-0.018510109
1009,-0.03726732
1010,-0.024402032
1011,0.0126759065
1012,0.01107714
1013,-0.03557749
1014,-0.020297837
1015,-0.024740348
1016,-0.017923854
1017,-0.022039972
1018,-0.022233168
1019,0.002380362
1020,-0.0067452975
1021,-0.011664458
1022,-0.037453637
1023,-0.040896714
1024,0.007058364
1025,0.024587343
1026,-0.02827808
1027,-0.03660674
1028,-0.024395663
1029,-0.061603736
1030,-0.0325808
1031,-0.022258367
1032,-0.039569937
1033,0.013113417
1034,-0.025720816
1035,-0.02874527
1036,-0.022459418
1037,-0.04548866
1038,0.021710694
1039,-0.024514377
1040,0.029247187
1041,0.02658702
1042,-0.030218145
1043,-0.028698165
1044,-0.0128117055
1045,0.009503136
1046,0.013367346
1047,-0.026980843
1048,0.0029604766
1049,-0.016238613
1050,-0.050807014
1051,-0.035689652
1052,0.016434396
1053,-0.034346793
1054,-0.02986164
1055,0.022306744
1056,0.045459077
1057,0.00084937253
1058,-8.504632e-05
1059,0.009652813
1060,-0.045245655
1061,-0.044094466
1062,-0.026910933
1063,-0.015590019
1064,0.023595702
1065,-0.016987178
1066,0.031809393
1067,-0.014620508
1068,-0.038981795
1069,-0.013666378
1070,-0.00019364488
1071,-0.03339693
1072,-0.017114267
1073,-0.01768492
1074,-0.025894882
1075,0.020894226
1076,0.020087369
1077,-0.018350119
1078,-0.039742
1079,-0.036753666
1080,-0.05869067
1081,0.03932702
1082,-0.03320181
1083,0.035049155
1084,0.000888364
1085,0.044983972
1086,-0.03837412
1087,0.017066166
1088,-0.03696151
1089,-0.013217321
1090,-0.045793273
1091,-0.016784094
1092,0.059312362
1093,-0.036575835
1094,-0.013635033
1095,0.030087838
1096,-0.03965707
1097,-0.033117555
1098,-0.027295213
1099,-0.036360588
1100,0.031345986
1101,0.026605707
1102,0.012299782
1103,-0.02270558
1104,-0.01995299
1105,-0.04645799
1106,-0.050023038
1107,0.019117057
1108,0.027900347
1109,-0.017489662
1110,-0.018128917
1111,-0.04025809
1112,-0.034688216
1113,0.009048874
1114,-0.02031715
1115,-0.031194922
1116,-0.022317242
1117,-0.030053075
1118,-0.028390922
1119,-0.028503394
1120,-0.006448769
1121,-0.04262032
1122,-0.034628194
1123,-0.037441947
1124,0.002284766
1125,0.0004111042
1126,-0.0004980242
1127,-0.005599021
1128,-0.013692207
1129,-0.014113577
1130,-0.011965817
1131,-0.0064203106
1132,0.033822153
1133,-0.032653518
1134,-0.05154661
1135,-0.0071070055
1136,-0.012677258
1137,-0.0393989
1138,-0.022683866
1139,0.00914709
1140,-0.027731484
1141,-0.040488634
1142,-0.020638539
1143,-0.026365392
1144,-0.015615399
1145,-0.022015547
1146,-0.03327583
1147,0.023256214
1148,-0.0070790118
1149,0.0048659174
1150,0.029540604
1151,-0.040870707
1152,0.010856838
1153,0.03007407
1154,-0.0074822414
1155,-0.02154507
1156,-0.0079864245
1157,0.012552012
1158,-0.007920965
1159,-0.033293042
1160,-0.02551428
1161,-0.0003350563
1162,-0.017129153
1163,-0.027658628
1164,-0.009070925
1165,-0.017231964
1166,0.0074612754
1167,-0.0059133
1168,-0.009859696
1169,0.00836635
1170,0.019028151
1171,-0.01820282
1172,-0.010286232
1173,0.015131972
1174,0.03730179
1175,-0.029587984
1176,0.016644886
1177,-0.0034564803
1178,-0.03329023
1179,-0.04008337
1180,-0.000530708
1181,-0.04208261
1182,-0.03262729
1183,-0.0017785575
1184,0.026160914
1185,0.028783746
1186,0.018334089
1187,-0.00022691925
1188,-0.024438385
1189,-0.04617237
1190,-0.029635787
1191,0.0011676495
1192,0.030099893
1193,-0.022470562
1194,0.018742604
1195,0.00735981
1196,-0.028881505
1197,0.015761474
1198,0.034175385
1199,-0.032013267
1200,-0.032092057
1201,-0.030614702
1202,-0.019458294
1203,-0.024460005
1204,0.007482533
1205,-0.008899801
1206,-0.0455056
1207,-0.027415851
1208,-0.022889556
1209,0.0138963545
1210,0.02897353
1211,-0.021918297
1212,-0.0048189526
1213,0.021667225
1214,-0.028281186
1215,0.029548237
1216,-0.027402807
1217,0.023275757
1218,-0.03889713
1219,-0.01784914
1220,0.017199034
1221,-0.03459264
1222,0.017646242
1223,-0.005160413
1224,-0.029746126
1225,-0.009055875
1226,-0.017336257
1227,-0.02902386
1228,-0.013249747
1229,-0.002222641
1230,-0.020600436
1231,-0.021809354
1232,-0.016657492
1233,-0.04124153
1234,-0.01605607
1235,0.032639507
1236,0.016091306
1237,0.0034637342
1238,-0.009747676
1239,-0.026293766
1240,-0.021346545
1241,-0.04474735
1242,-0.018899381
1243,-0.01690121
1244,0.0036171135
1245,-0.019039128
1246,-0.044253137
1247,0.022539824
1248,-0.040695176
1249,-0.03907459
1250,-0.030991262
1251,-0.035743807
1252,0.031931818
1253,-0.011233851
1254,0.034504633
1255,-0.015740162
1256,-0.01644281
1257,-0.0042962176
1258,0.012886136
1259,-0.018703561
1260,0.0028697122
1261,-0.0024366172
1262,-0.0235821
1263,-0.010001821
1264,0.017234713
1265,-0.037139863
1266,-0.014907078
1267,-0.013994762
1268,0.008868728
1269,-0.03140574
1270,-0.007965192
1271,-0.02068106
1272,-0.011281249
1273,-0.019758942
1274,-0.03326641
1275,0.034501214
1276,-0.003217793
1277,-0.03517086
1278,-0.029583884
1279,-0.038447462
1280,0.017912395
1281,0.044163473
1282,-0.010158964
1283,-0.01942299
1284,-0.014608171
1285,0.010963666
1286,0.0006108968
1287,-0.012762582
1288,-0.012114885
1289,0.0012132967
1290,0.01078733
1291,-0.02375504
1292,-0.016126674
1293,-0.0242427
1294,-0.00663985
1295,-0.021355383
1296,0.011774783
1297,0.007482927
1298,0.031392362
1299,-0.0068740007
1300,-0.007435531
1301,0.026013387
1302,-0.006175547
1303,-0.022024624
1304,0.0501885
1305,-0.014315284
1306,-0.034140483
1307,-0.0052665304
1308,0.022782201
1309,-0.0024963373
1310,-0.008192907
1311,-0.009677881
1312,0.029105103
1313,0.015460329
1314,0.013094767
1315,0.032019425
1316,-0.0027083207
1317,-0.010786419
1318,0.0015571772
1319,-0.015618286
1320,0.0031607065
1321,0.0066992976
1322,0.018790165
1323,-0.014204381
1324,-0.009334737
1325,0.029304935
1326,0.033163264
1327,-0.024493083
1328,-0.011350628
1329,-0.0019682269
1330,0.0053087855
1331,0.027793454
1332,0.0018727134
1333,-0.012764094
1334,-0.0098303445
1335,-0.011600383
1336,-0.012674775
1337,0.021825014
1338,-0.015166751
1339,-0.008291747
1340,0.00651794
1341,-0.016815744
1342,-0.011055088
1343,0.027387725
1344,0.010507355
1345,0.012367039
1346,-0.019563105
1347,-0.021556498
1348,-0.0020616734
1349,-0.028877096
1350,-0.011909637
1351,0.012883214
1352,-0.018954769
1353,-0.0027181269
1354,-0.00090975064
1355,-0.025277583
1356,-0.010842859
1357,0.00430918
1358,-0.02210637
1359,-0.01426654
1360,-0.01815594
1361,-0.022073483
1362,-0.033214435
1363,0.01720801
1364,0.012946058
1365,-0.004494113
1366,-0.008594292
1367,-0.008502867
1368,-0.03445235
1369,-0.025447
1370,-0.005551981
1371,-0.010091296
1372,-0.0206719
1373,-0.0033272458
1374,-0.012080803
1375,0.011682337
1376,-0.017943447
1377,-0.016509714
1378,-0.012873523
1379,-0.03466757
1380,0.008470467
1381,-0.01966031
1382,0.012962861
1383,-0.00608505
1384,-0.022217164
1385,-0.005754915
1386,-0.00787254
1387,-0.01564207
1388,0.021354763
1389,-0.013397057
1390,-0.026644751
1391,-0.024142656
1392,-0.024192495
1393,-0.016789988
1394,-0.017810848
1395,0.017256726
1396,0.025408851
1397,-0.011689239
1398,-0.004655488
1399,-0.021294365
1400,0.008783268
1401,-0.022033958
1402,-0.004134871
1403,0.026763786
1404,-0.016249621
1405,-0.008303182
1406,0.008600804
1407,-0.01849037
1408,0.008678878
1409,2.8952232e-05
1410,0.0017246578
1411,-7.0767244e-05
1412,-0.0028673715
1413,-0.016923482
1414,-0.019772088
1415,-0.002212104
1416,0.0035920958
1417,0.011220011
1418,0.0031311426
1419,-0.007438435
1420,0.004173647
1421,-0.00070663285
1422,-0.0046588276
1423,-8.032085e-05
1424,0.0015739847
1425,-0.014332246
1426,0.013397292
1427,-0.014554989
1428,-0.010059902
1429,0.009939459
1430,0.006216283
1431,-0.005577191
1432,-0.009601465
1433,-0.008510402
1434,0.008062425
1435,-0.005254286
1436,-0.0033823277
1437,-0.0005417047
1438,0.0004310534
1439,-0.0017217328
1440,-0.00021085402
1441,0.001606919
1442,-0.016496466
1443,0.00859625
1444,-0.0033341097
1445,0.012458779
1446,-0.0068681436
1447,0.013291489
1448,-0.015471193
1449,0.004234717
1450,-0.011198236
1451,-2.4453084e-05
1452,-0.013162209
1453,0.01078287
1454,0.008844419
1455,0.007997569
1456,0.017504409
1457,0.007886043
1458,0.0049242787
1459,0.010236203
1460,-0.005329004
1461,-0.0035741748
1462,0.0019926443
1463,-0.0059684804
1464,0.016375082
1465,-0.019191079
1466,-0.0020529479
1467,-0.010926283
1468,0.012787638
1469,-0.016862104
1470,0.0072501753
1471,-0.009599826
1472,-0.0034457205
1473,0.00819132
1474,0.008025582
1475,0.01452999
1476,-0.00089813804
1477,0.006215056
1478,0.002865975
1479,-0.003079386
1480,0.005970055
1481,-0.016045948
1482,-0.01653308
1483,-0.006741829
1484,-0.005872316
1485,-0.014538851
1486,0.015521796
1487,0.007414311
1488,-0.0005141515
1489,-0.0008934119
1490,-0.0076866965
1491,0.0031036967
1492,-0.007869947
1493,-0.01678003
1494,-0.01768622
1495,0.008316809
1496,-0.013517037
1497,-0.011495944
1498,0.009788238
1499,-0.018615102
1500,-0.003698169
1501,0.0080470545
1502,-0.01653369
1503,-0.0016837416
1504,0.0028704298
1505,0.0022239184
1506,0.00027684605
1507,-0.0066305147
1508,0.013317697
1509,0.0016718433
1510,0.019342244
1511,-0.0071246712
1512,-0.0027642462
1513,0.011128263
1514,0.009193299
1515,-0.0036183756
1516,0.01156422
1517,0.0049773855
1518,-0.007304568
1519,-0.00034616436
1520,0.00033513198
1521,0.0052451855
1522,-0.012386774
1523,-0.0022782579
1524,0.0034370064
1525,0.015570549
1526,0.012426038
1527,0.004497669
1528,-0.0149325
1529,0.012126197
1530,0.0029054475
1531,0.008064729
1532,-0.01345055
1533,0.0037459673
1534,-0.0128139835
1535,0.012636967
1536,-0.009590842
1537,-8.515641e-05
1538,0.0040049166
1539,-0.00081829523
1540,0.005666682
1541,0.0052666883
1542,0.013819892
1543,0.011234973
1544,-0.007915784
1545,-0.0003855074
1546,0.018127257
1547,-0.009604632
1548,0.011263277
1549,-0.004727039
1550,0.0013440299
1551,-0.006128024
1552,-0.0068734
1553,-0.010244308
1554,0.01502697
1555,0.012341075
1556,0.00036503686
1557,-0.004455432
1558,-0.002804795
1559,0.014621285
1560,0.008363974
1561,0.011446911
1562,-0.0076781027
1563,0.0006169433
1564,-0.0019625477
1565,0.0022129798
1566,-0.0020800664
1567,-0.00929879
1568,-0.00087224535
1569,-0.011481227
1570,0.00065980275
1571,0.0008720458
1572,-0.0028490615
1573,0.0064715003
1574,0.012824306
1575,-0.011241215
1576,-0.006190742
1577,0.0023526696
1578,0.0053620967
1579,-0.004012225
1580,-0.0068132505
1581,-0.009934932
1582,0.0054199104
1583,-0.019039571
1584,0.0046635875
1585,-0.010488315
1586,-0.0063171196
1587,-0.007034015
1588,-0.011776909
1589,0.0012757701
1590,0.0051606838
1591,0.0052533303
1592,-0.013846804
1593,-0.0052386583
1594,-0.0049298126
1595,0.002873373
1596,-0.00045345433
1597,0.0039599836
1598,0.013333451
1599,-0.016915245
1600,-0.0067384825
1601,0.004762501
1602,0.009802821
1603,0.0011921457
1604,-0.006175498
1605,-0.011043686
1606,0.010823404
1607,0.00054687005
1608,0.0079793045
1609,0.013467178
1610,0.0036074934
1611,0.006353449
1612,-0.013777132
1613,0.00034878097
1614,-0.009433964
1615,-0.0099248085
1616,0.0013627151
1617,-0.009328849
1618,0.0008858169
1619,0.0017837941
1620,0.010594751
1621,-0.009638371
1622,0.015837673
1623,0.011693001
1624,-0.00199867
1625,0.013454156
1626,0.012609627
1627,0.011288853
1628,-0.013201524
1629,-0.0016244485
1630,0.00072112976
1631,-0.0038585183
1632,-0.011431257
1633,-0.0052131116
1634,-0.0070168846
1635,-0.010238115
1636,0.013562956
1637,0.006158921
1638,0.0014753855
1639,0.016171336
1640,0.011716116
1641,0.00042279562
1642,-0.0028176059
1643,0.016784752
1644,-0.010879523
1645,-0.0009636132
1646,-0.0007685803
1647,-0.012959257
1648,-0.010924889
1649,0.013221019
1650,0.00010370563
1651,0.0013236557
1652,0.0018380994
1653,-0.0012544884
1654,0.0045674727
1655,0.018390689
1656,0.013099508
1657,-0.0029513128
1658,-0.010540603
1659,-0.0049406947
1660,-0.0007202948
1661,0.0063469345
1662,0.011250647
1663,0.0037399146
1664,0.017518617
1665,0.0023010613
1666,0.01596732
1667,0.01959513
1668,0.011872081
1669,-0.009101133
1670,0.001016131
1671,-0.0027834575
1672,0.019326413
1673,-0.0035317177
1674,-0.010014139
1675,-0.0026089302
1676,0.0058560884
1677,-0.013125267
1678,-0.00745421
1679,-0.001306675
1680,0.00083093485
1681,-0.0062560877
1682,-0.004657758
1683,-0.0055686347
1684,0.009635077
1685,0.0030656282
1686,0.0034282145
1687,0.006203255
1688,-0.014501525
1689,0.0027719843
1690,0.0032304418
1691,0.006096297
1692,-0.0023811352
1693,-0.0070536076
1694,0.0063154893
1695,-0.010385451
1696,-0.005402448
1697,-0.002441651
1698,0.014077085
1699,0.01134606
1700,0.00487528
1701,0.016510285
1702,0.0046976535
1703,0.006572669
1704,-0.018288821
1705,0.0036170185
1706,0.01770309
1707,-0.01610216
1708,0.01148708
1709,-0.019803084
1710,-0.013736389
1711,-0.0054633156
1712,-0.0033286163
1713,-0.014721404
1714,-0.008967061
1715,-0.007082101
1716,-0.013976674
1717,-0.010946923
1718,0.013139965
1719,-0.00983457
1720,-0.001509743
1721,0.0044831927
1722,-0.003951347
1723,0.018047232
1724,-0.009985664
1725,-0.0062649646
1726,-0.0012505603
1727,-0.00079490873
1728,-0.014908353
1729,0.011373573
1730,-0.0039917524
1731,-0.0025794366
1732,0.00019284258
1733,0.008545569
1734,-0.013589359
1735,0.010225942
1736,0.003933228
1737,0.00066889805
1738,0.00579669
1739,-0.0050878595
1740,-0.0036395965
1741,0.015007381
1742,-0.0039444976
1743,0.011345388
1744,0.016901962
1745,-0.008442716
1746,0.0037507755
1747,-0.00097463524
1748,0.012969416
1749,-0.0026487815
1750,-0.00083364703
1751,0.0036154052
1752,-0.005810321
1753,-0.010398823
1754,-0.0105353845
1755,0.0014089586
1756,0.0011693285
1757,-0.00489863
1758,0.0144078005
1759,0.005562953
1760,0.016604662
1761,-0.01941818
1762,0.019854238
1763,-0.0042798356
1764,-0.005792702
1765,0.00037068053
1766,-0.003915468
1767,0.0024342658
1768,0.0135364
1769,-0.004026799
1770,0.0074824225
1771,0.009762593
1772,0.011733005
1773,-0.014628346
1774,-0.010922121
1775,0.008871504
1776,0.0050312504
1777,-0.007586115
1778,0.014281019
1779,-0.0017476593
1780,0.0032402007
1781,-0.006091612
1782,0.019521426
1783,-0.009217294
1784,0.014701841
1785,0.004723293
1786,0.008714595
1787,-0.0044190297
1788,-0.017196814
1789,0.0037186241
1790,0.013244145
1791,0.016773526
1792,0.004863778
1793,-0.0018507357
1794,0.0005179847
1795,0.009332738
1796,-0.0042028707
1797,-0.010595004
1798,0.009472487
1799,-0.010175854
1800,0.00055909477
1801,0.0011024353
1802,0.018039273
1803,0.0102788955
1804,-0.01036102
1805,0.00918564
1806,0.0062087523
1807,-0.002788285
1808,0.010196252
1809,0.012679085
1810,0.0075274175
1811,0.016794479
1812,-0.009068753
1813,-0.0057655256
1814,0.0077041355
1815,-0.0010045796
1816,0.003360047
1817,-0.0033299169
1818,-0.0008023803
1819,0.0048294533
1820,0.01874534
1821,0.014493482
1822,-0.013906732
1823,-0.012995615
1824,-0.00091800693
1825,0.006375361
1826,0.0082812095
1827,0.004549576
1828,0.0012901212
1829,0.016861461
1830,0.0039553777
1831,0.0041847867
1832,0.0029411365
1833,-0.01700757
1834,-0.0036448117
1835,0.0058941385
1836,0.016055403
1837,-0.007826176
1838,0.0063137305
1839,-0.0056700767
1840,-0.010462622
1841,0.013675794
1842,0.0013001062
1843,0.0019451377
1844,0.0086617805
1845,-0.01191803
1846,-0.004253302
1847,-0.00036800205
1848,0.0013878155
1849,-0.0114731705
1850,0.0066230167
1851,0.0061118095
1852,0.013683596
1853,0.002045348
1854,0.00430208
1855,-0.011789926
1856,-0.0024832769
1857,-0.0012555646
1858,-0.009740363
1859,0.010279498
1860,-0.0065197954
1861,0.014448031
1862,0.0010714231
1863,-0.0028753479
1864,0.0006836797
1865,-0.0065791095
1866,-0.0013898379
1867,-0.0115977805
1868,0.015047755
1869,-0.006332982
1870,0.0012467952
1871,-0.0036741404
1872,-0.003238515
1873,-0.0126503175
1874,-0.0070207287
1875,-0.01984297
1876,0.011427757
1877,0.008387966
1878,-0.0067509105
1879,0.008194571
1880,-0.0007859059
1881,0.00311267
1882,0.001294747
1883,-0.002152649
1884,0.014778657
1885,-0.0064668306
1886,-0.013904284
1887,-0.008282831
1888,-0.015601069
1889,0.0034768118
1890,-0.008117386
1891,0.0032946195
1892,0.00854022
1893,0.009276953
1894,0.0014454832
1895,0.0033950096
1896,-0.0036087397
1897,5.110894e-05
1898,0.010284236
1899,0.013300698
1900,0.0042209122
1901,-0.005756809
1902,-0.008855676
1903,-0.013062185
1904,0.013945756
1905,-0.0018551069
1906,0.0070555517
1907,0.0068707466
1908,0.0007286285
1909,-0.0008565516
1910,0.015852427
1911,0.0060984283
1912,-0.0008468588
1913,-0.019811444
1914,0.006501778
1915,0.014032415
1916,0.003878364
1917,0.010904067
1918,-0.007920792
1919,-0.01266572
1920,0.013119161
1921,-0.0051630503
1922,-0.0022703
1923,0.005416228
1924,0.015915308
1925,-0.010783273
1926,0.0031384854
1927,-0.0072417837
1928,-0.0006172765
1929,-0.008195574
1930,-0.0074899546
1931,0.009523189
1932,-0.008414613
1933,0.017302653
1934,0.012184579
1935,0.0043229023
1936,-0.008758219
1937,-0.005225368
1938,-0.017898679
1939,0.0029126247
1940,0.014030414
1941,-0.007997804
1942,-0.00028706738
1943,0.0060278927
1944,0.005358782
1945,-0.0016045091
1946,0.0024677338
1947,-0.004749888
1948,0.015829146
1949,0.010354949
1950,0.015100535
1951,-0.002018217
1952,-0.012466648
1953,0.007472288
1954,-0.011908889
1955,-0.008465041
1956,-0.0030264356
1957,0.013534134
1958,-0.012976439
1959,-0.00012425162
1960,0.0059949076
1961,0.00950592
1962,-0.004047393
1963,0.014929314
1964,0.017202312
1965,0.0012486206
1966,0.015112008
1967,-0.0057053864
1968,-0.007714147
1969,0.0038515185
1970,-0.00055518653
1971,0.01065053
1972,0.0031626543
1973,-0.005098322
1974,-0.007106973
1975,0.008199587
1976,-0.004140652
1977,0.0032907971
1978,-0.012178839
1979,0.002883804
1980,-0.006834761
1981,0.0011401791
1982,-0.014483729
1983,0.011631583
1984,-0.0048516933
1985,-0.016609484
1986,0.01369103
1987,-0.007618881
1988,-0.00062657346
1989,0.0037854526
1990,0.017015137
1991,0.005540962
1992,0.010776302
1993,0.010509254
1994,-0.0074638883
1995,0.0010393917
1996,-0.006604356
1997,0.00955709
1998,-0.00064436876
1999,0.014616584
2000,-0.015429909
2001,-0.0070891534
2002,0.00393934
2003,0.0020269265
2004,0.010664707
2005,0.004331788
2006,-0.0028447523
2007,0.018181182
2008,-0.0004381297
2009,0.0018712056
2010,-0.0048620417
2011,0.004739998
2012,0.0035697403
2013,0.0052772225
2014,-0.0067732017
2015,9.944367e-05
2016,0.008928844
2017,0.015731514
2018,-0.009808073
2019,-0.011834178
2020,0.012533592
2021,-0.013296675
2022,-0.01141575
2023,0.0060427915
2024,-0.0063537713
2025,0.01663485
2026,-0.0065356093
2027,-0.0028366926
2028,0.0055362415
2029,0.0020131355
2030,-0.004707778
2031,0.0044115363
2032,-0.0031616776
2033,-0.0031451297
2034,0.009573713
2035,0.008782706
2036,-0.004970439
2037,-0.016427321
2038,0.012647712
2039,0.0046207476
2040,0.0023654709
2041,0.005168728
2042,0.01978474
2043,0.0095822085
2044,0.01583204
2045,-0.012258019
2046,-0.014664358
2047,0.0033186122
2048,-0.043085035
2049,-0.053475145
2050,0.0018013914
2051,-0.03617775
2052,0.006268719
2053,0.015223402
2054,-0.0018734126
2055,-0.050115157
2056,0.00996114
2057,0.041818563
2058,-0.035955086
2059,-0.003498443
2060,0.018347755
2061,-0.0026949928
2062,-0.0552885
2063,-0.035737593
2064,0.0112632485
2065,0.043390393
2066,0.018760314
2067,-0.050893337
2068,0.0035340004
2069,0.017872315
2070,-0.003020869
2071,0.020035129
2072,-0.045767255
2073,-0.004759076
2074,0.023605466
2075,0.0044657406
2076,-0.09027643
2077,0.00460353
2078,-0.0010775151
2079,0.0006373978
2080,0.0075389813
2081,0.0042801006
2082,0.00907107
2083,-0.01850483
2084,-0.015534539
2085,-0.00030011305
2086,0.04481044
2087,-0.052143283
2088,-0.05319166
2089,-0.040381715
2090,0.017479653
2091,-0.03863695
2092,-0.048874136
2093,0.061596666
2094,-0.06340989
2095,-0.045892574
2096,0.029855205
2097,0.022165645
2098,0.015043193
2099,0.016037887
2100,0.024888555
2101,-0.01057312
2102,-0.012532715
2103,-0.01432376
2104,-0.027214784
2105,0.009230272
2106,0.047382638
2107,0.012905557
2108,-0.0067608794
2109,0.030019298
2110,-0.019153014
2111,-0.0068295705
2112,0.00086532946
2113,0.01529196
2114,-0.020343788
2115,0.010823977
2116,-0.05135579
2117,-0.047731426
2118,-0.0016535571
2119,0.012661954
2120,-0.029939523
2121,-0.039953418
2122,0.005366957
2123,-0.044362213
2124,0.03765194
2125,-0.082595505
2126,-0.05215827
2127,0.021485027
2128,0.0007470824
2129,-0.057432134
2130,0.007523649
2131,-0.05836104
2132,0.016903365
2133,-0.0024614227
2134,0.016941274
2135,0.008752579
2136,-0.04696607
2137,-0.019361436
2138,0.04019464
2139,0.0048510847
2140,-0.0067552906
2141,-0.048361357
2142,0.016562989
2143,0.04243429
2144,0.01206518
2145,-0.048047423
2146,-0.04115791
2147,-0.00044787972
2148,-0.040031083
2149,-0.012831847
2150,0.014210023
2151,-0.0016792769
2152,-0.013928418
2153,-0.005717769
2154,-0.012861428
2155,0.021390887
2156,-0.0010738123
2157,-0.0076442645
2158,-0.028935293
2159,-0.002700006
2160,0.010908939
2161,0.004124924
2162,0.010511523
2163,-0.009114229
2164,0.025202613
2165,0.014021736
2166,-0.0147415055
2167,-0.007148175
2168,-0.0015443445
2169,-0.0132829435
2170,-0.048769377
2171,-0.088814914
2172,0.022937348
2173,0.013813761
2174,0.004895014
2175,0.040806763
2176,0.05157448
2177,0.017961595
2178,0.023009146
2179,0.041939136
2180,0.020874193
2181,0.007906774
2182,0.05625326
2183,-0.027374549
2184,0.021929994
2185,0.022549786
2186,0.03599275
2187,0.035317767
2188,0.014081497
2189,-0.014742732
2190,0.047516387
2191,0.04021905
2192,0.026188841
2193,-0.0010965021
2194,0.02319219
2195,-0.062368076
2196,0.038873486
2197,0.046285056
2198,0.03470934
2199,0.0142997475
2200,0.04970788
2201,0.053969067
2202,0.020107718
2203,0.037211504
2204,0.07120415
2205,0.017777648
2206,0.016219938
2207,0.06249812
2208,0.015998876
2209,0.028757313
2210,0.04405681
2211,0.05241633
2212,0.0321478
2213,0.041231487
2214,-0.013639807
2215,0.012053715
2216,0.05504263
2217,0.019647397
2218,0.052090522
2219,0.026509805
2220,-0.048837114
2221,-0.018615954
2222,0.100032225
2223,-0.066894405
2224,0.006037037
2225,-0.0411323
2226,0.033368576
2227,-0.045206495
2228,-0.0040801377
2229,0.029951679
2230,0.03189245
2231,0.018173756
2232,-0.026422346
2233,-0.008732764
2234,0.027564362
2235,0.0009049062
2236,0.03725868
2237,0.013484615
2238,0.044622973
2239,0.05011578
2240,0.010797758
2241,0.03764103
2242,-0.04657211
2243,0.016625667
2244,0.03765535
2245,-0.04665768
2246,0.037341684
2247,0.013113322
2248,0.0580165
2249,0.038443636
2250,0.012251701
2251,-0.04432595
2252,-0.010542363
2253,0.05293929
2254,0.01348889
2255,0.03436605
2256,0.03179624
2257,-0.056303374
2258,0.02880138
2259,0.044658113
2260,0.008322744
2261,0.012548409
2262,0.023596704
2263,0.013057719
2264,0.045929365
2265,0.0156172225
2266,0.047327798
2267,0.042239357
2268,-0.037200537
2269,0.029991886
2270,0.01718487
2271,0.031306386
2272,0.022772
2273,0.0011301339
2274,-0.041135594
2275,0.038998093
2276,0.033984255
2277,0.012749496
2278,0.02512355
2279,0.039569087
2280,0.030174855
2281,0.019042918
2282,0.020818708
2283,0.007289722
2284,0.020952541
2285,-0.04064093
2286,-0.06311589
2287,0.022121007
2288,0.019241454
2289,-0.047993947
2290,0.03192225
2291,0.062037136
2292,0.045806352
2293,-0.044509243
2294,0.025401687
2295,0.024999537
2296,0.009960298
2297,0.019578332
2298,0.032849617
2299,0.048580952
2300,0.0058483006
2301,-0.017474204
2302,0.032148805
2303,0.036741864
2304,0.043793634
2305,0.038543098
2306,0.038933147
2307,-0.031489957
2308,0.025757497
2309,0.009811883
2310,-0.05211334
2311,0.01907685
2312,0.031340376
2313,-0.011338553
2314,0.058378816
2315,-0.032155
2316,0.009799828
2317,-0.023836851
2318,0.05324444
2319,0.05213576
2320,0.016614096
2321,-0.039306965
2322,-0.030233579
2323,-0.05991634
2324,-0.04475244
2325,0.010648622
2326,0.014382176
2327,-0.04182165
2328,0.04677772
2329,-0.05143724
2330,0.008695465
2331,0.0486363
2332,0.05311392
2333,0.033345997
2334,0.039184082
2335,-0.071830206
2336,0.0022103214
2337,0.0593636
2338,0.027578529
2339,0.03911027
2340,0.032162312
2341,-0.04829257
2342,0.046122722
2343,0.040256854
2344,0.046739057
2345,0.0358447
2346,0.05406124
2347,0.032167397
2348,0.058032297
2349,-0.012697946
2350,0.028666766
2351,0.027950348
2352,0.013764723
2353,0.020125145
2354,-0.040561013
2355,0.043934356
2356,-0.014401619
2357,0.019526694
2358,0.02137965
2359,0.015047841
2360,-0.03815857
2361,0.024271527
2362,-0.006256904
2363,0.037108894
2364,0.032674003
2365,0.01593136
2366,-0.04914489
2367,-0.058138065
2368,0.011476373
2369,-0.051100176
2370,0.06123464
2371,0.024575986
2372,0.0037467736
2373,0.031527806
2374,-0.04886235
2375,0.088004455
2376,-0.029973637
2377,0.051791288
2378,0.04421482
2379,0.046278644
2380,0.02366353
2381,0.037791878
2382,0.045740064
2383,0.041736178
2384,0.041801736
2385,0.035168957
2386,0.02198777
2387,0.03094825
2388,0.015306236
2389,0.015228822
2390,0.011731885
2391,-0.0033342354
2392,0.012101505
2393,0.028004372
2394,0.03694068
2395,-0.03137418
2396,0.05816855
2397,0.023741491
2398,0.020522969
2399,0.009699929
2400,0.013689057
2401,0.016599836
2402,0.03706979
2403,-0.046231996
2404,0.03316443
2405,0.027934646
2406,0.030197794
2407,-0.04508796
2408,0.024071608
2409,-0.008916801
2410,0.024191288
2411,-0.03346118
2412,0.031802513
2413,0.055103052
2414,-0.058391467
2415,-0.02478255
2416,0.016406352
2417,0.036992256
2418,-0.033490617
2419,0.049392432
2420,0.02871376
2421,0.027116586
2422,0.027702842
2423,0.0184235
2424,0.023184529
2425,0.021996267
2426,0.016063651
2427,0.043325048
2428,0.028253134
2429,0.027003756
2430,0.0031933687
2431,-0.015717946
2432,0.039163705
2433,0.09021768
2434,-0.048105836
2435,0.018173587
2436,-0.041337263
2437,0.013418409
2438,-0.052029736
2439,0.038610227
2440,-0.020616787
2441,-0.024900785
2442,-0.027211873
2443,0.01485259
2444,-0.028639385
2445,-0.015524665
2446,0.0757768
2447,-0.034000855
2448,-0.023816573
2449,0.0049428195
2450,0.030801935
2451,0.03195186
2452,0.033233553
2453,0.020691263
2454,0.017741244
2455,0.012126689
2456,0.029619846
2457,-0.04458289
2458,-0.03980378
2459,-0.032262813
2460,0.05139915
2461,-0.039035313
2462,0.0443257
2463,0.038308132
2464,-0.015608657
2465,0.0010935395
2466,-0.024178412
2467,-0.00042132376
2468,0.025336798
2469,-0.048570085
2470,-0.03677097
2471,0.033100296
2472,0.037402235
2473,0.03304965
2474,0.0006270501
2475,0.020525616
2476,0.050848477
2477,-0.041839972
2478,0.0007815387
2479,0.05196674
2480,-0.030961232
2481,-0.04074722
2482,0.030191168
2483,0.023373228
2484,0.010999748
2485,-0.030238185
2486,-0.046066817
2487,0.017023088
2488,0.057476662
2489,0.030310608
2490,0.003269455
2491,0.016787672
2492,-0.025589015
2493,0.009023681
2494,-0.048898328
2495,0.03609377
2496,0.035806533
2497,0.033856004
2498,-0.054748807
2499,0.035688132
2500,0.011520632
2501,0.036075965
2502,0.034706328
2503,-0.022129757
2504,0.014706153
2505,-0.02608955
2506,-0.0384894
2507,-0.023208685
2508,0.016086778
2509,0.029953312
2510,0.039493732
2511,-0.033805165
2512,-0.038490422
2513,0.04543005
2514,-0.03780976
2515,0.041658755
2516,0.013474541
2517,0.027817674
2518,-0.02851762
2519,0.004476209
2520,-0.003669648
2521,0.031259384
2522,-0.07913694
2523,0.02815934
2524,-0.03282507
2525,0.028404683
2526,0.017907681
2527,-0.0022895983
2528,0.016405106
2529,0.039063998
2530,0.039696865
2531,-0.04442524
2532,0.071521826
2533,0.030486215
2534,0.04198282
2535,0.044911657
2536,-0.045816462
2537,0.006659085
2538,-0.020787373
2539,-0.02937078
2540,0.011572421
2541,-0.037981756
2542,0.045195796
2543,-0.030323349
2544,-0.040511932
2545,0.037541226
2546,0.009870412
2547,0.0057168966
2548,-0.047474366
2549,0.039231922
2550,-0.028974434
2551,-0.045544453
2552,0.017366806
2553,0.021809006
2554,0.030228173
2555,0.046414774
2556,-0.023454417
2557,0.061923943
2558,0.003302235
2559,-0.0420878
2560,0.03908385
2561,0.064285636
2562,-0.03682785
2563,-0.03337162
2564,-0.034628645
2565,-0.023261936
2566,0.040339254
2567,0.04471157
2568,-0.024324581
2569,0.004260869
2570,-0.035727598
2571,0.02839753
2572,0.02240642
2573,-0.030330874
2574,0.06114725
2575,-0.035334814
2576,0.021861257
2577,0.027017497
2578,0.015886372
2579,0.05333663
2580,-0.043054402
2581,0.015946563
2582,-0.04529429
2583,0.02992216
2584,0.034711808
2585,0.048237994
2586,-0.046629976
2587,-0.035742607
2588,-0.08272963
2589,-0.036989547
2590,-0.030754747
2591,0.03326255
2592,0.01692465
2593,-0.013415009
2594,-0.036545135
2595,0.029042069
2596,-0.03215754
2597,0.04256317
2598,-0.036473654
2599,-0.034953576
2600,0.032613087
2601,-0.028603619
2602,0.003115235
2603,-0.03863319
2604,-0.028205104
2605,-0.038364366
2606,0.025774231
2607,0.048933897
2608,-0.030166248
2609,0.038305763
2610,-0.039317857
2611,-0.03947974
2612,-0.021708174
2613,0.024902316
2614,0.042318206
2615,-0.025647076
2616,-0.023454035
2617,-0.02621401
2618,0.0035060442
2619,-0.03540581
2620,0.022799619
2621,-0.030895727
2622,0.03443585
2623,0.02985672
2624,0.036912106
2625,-0.051956154
2626,-0.055739313
2627,-0.02339489
2628,0.03104603
2629,0.044726588
2630,-0.04798634
2631,0.015568924
2632,0.03985483
2633,-0.039124407
2634,-0.038417585
2635,0.052940153
2636,-0.024215579
2637,-0.00983139
2638,-0.043051694
2639,-0.037274875
2640,-0.032520488
2641,0.047367323
2642,-0.036974814
2643,0.05223678
2644,-0.030981116
2645,-0.032714676
2646,-0.0232609
2647,0.011028232
2648,-0.0314798
2649,-0.012143293
2650,-0.033148017
2651,-0.029398931
2652,0.050678857
2653,-0.028045246
2654,-0.027998107
2655,-0.0017154919
2656,-0.031951934
2657,-0.02045824
2658,0.040512018
2659,0.03435513
2660,0.06510404
2661,-0.034291662
2662,0.027926171
2663,-0.04510472
2664,0.044120308
2665,0.026076302
2666,0.027048662
2667,0.028249856
2668,-0.02602351
2669,0.04434495
2670,-0.05886032
2671,0.025835555
2672,-0.041079454
2673,0.040339418
2674,0.033195958
2675,0.008160015
2676,-0.030188201
2677,0.042583484
2678,0.02020209
2679,-0.031446274
2680,-0.025167055
2681,-0.036561396
2682,-0.03137258
2683,0.05416886
2684,-0.021892915
2685,-0.043583278
2686,-0.032510962
2687,-0.05186809
2688,0.04501164
2689,0.0055439775
2690,0.04244849
2691,0.038579933
2692,0.03648839
2693,-0.022719128
2694,-0.050687544
2695,-0.014203583
2696,-0.02870355
2697,-0.017840765
2698,-0.036031574
2699,-0.03214893
2700,-0.028742133
2701,-0.0442219
2702,-0.019406212
2703,0.03210395
2704,-0.0254596
2705,0.008060271
2706,0.008698918
2707,-0.039955795
2708,0.022061864
2709,-0.015203684
2710,0.051376157
2711,-0.042441104
2712,-0.014704503
2713,-0.05286644
2714,-0.044505954
2715,-0.035764635
2716,0.049510125
2717,0.041903835
2718,-0.03578884
2719,0.018790813
2720,-0.03520659
2721,0.014811439
2722,-0.036564656
2723,0.02409643
2724,-0.031594723
2725,0.04611182
2726,-0.008797404
2727,-0.041910592
2728,0.0016817414
2729,-0.0391171
2730,0.0020216121
2731,-0.036371
2732,-0.048874207
2733,-0.026644623
2734,0.0025902544
2735,-0.024252515
2736,0.0341967
2737,-0.04166554
2738,0.028878927
2739,0.036745008
2740,0.022358507
2741,-0.030165084
2742,0.046702344
2743,-0.024199083
2744,-0.043144215
2745,-0.03615701
2746,0.0035174328
2747,-0.027466463
2748,-0.0256177
2749,-0.03894586
2750,0.041070674
2751,0.012040815
2752,0.0037917686
2753,-0.052455876
2754,0.044138882
2755,-0.025199888
2756,-0.028060066
2757,-0.0444497
2758,-0.04888226
2759,0.021610647
2760,-0.027174767
2761,-0.040022843
2762,0.026480168
2763,-0.031501845
2764,-0.023338353
2765,-0.0037688536
2766,0.052015837
2767,-0.03727801
2768,0.038154807
2769,-0.041079003
2770,-0.048916496
2771,0.012060933
2772,-0.017113488
2773,-0.032570653
2774,0.02750861
2775,-0.03185326
2776,-0.050931577
2777,-0.012159196
2778,-0.036249608
2779,0.039334346
2780,-0.032347336
2781,-0.048360996
2782,-0.02785755
2783,-0.0022500036
2784,-0.0415322
2785,-0.050342917
2786,-0.028731572
2787,0.03895891
2788,0.032971416
2789,-0.034290966
2790,0.014336765
2791,-0.04501791
2792,0.052343782
2793,-0.013515606
2794,-0.021031948
2795,-0.033034246
2796,-0.02462608
2797,-0.037361514
2798,0.0719441
2799,-0.030394306
2800,0.024827376
2801,-0.047994375
2802,-0.0277835
2803,0.018556602
2804,-0.034556758
2805,-0.044484064
2806,-0.02887909
2807,0.030594226
2808,-0.02517792
2809,-0.036543228
2810,-0.012471072
2811,0.036441427
2812,-0.007994899
2813,-0.030395415
2814,-0.032187093
2815,0.020329313
2816,-0.003437252
2817,-0.005042136
2818,-0.04811531
2819,-0.034761205
2820,-0.04132773
2821,-0.030056667
2822,-0.037565563
2823,-0.032954253
2824,0.04590703
2825,0.024149457
2826,-0.035389967
2827,-0.031079628
2828,-0.027710496
2829,0.056402486
2830,-0.008005337
2831,-0.035717633
2832,-0.021773199
2833,-0.016436888
2834,0.029840482
2835,-0.030862674
2836,-0.027741043
2837,0.03132952
2838,-0.039297797
2839,-0.029788677
2840,0.0023756882
2841,-0.01776268
2842,0.059735846
2843,-0.03270454
2844,0.007609121
2845,-0.035093013
2846,-0.03577943
2847,0.018879855
2848,-0.039875843
2849,0.019779246
2850,-0.019382065
2851,0.009064893
2852,-0.01944385
2853,-0.03799344
2854,0.020482132
2855,-0.050260924
2856,-0.00560644
2857,-0.040218916
2858,0.004533296
2859,-0.01940746
2860,-0.029745782
2861,0.011915782
2862,-0.013361455
2863,-0.04228202
2864,-0.03171101
2865,-0.040132277
2866,-0.032234292
2867,-0.032571804
2868,-0.016828418
2869,-0.03017517
2870,-0.04176838
2871,-0.03549776
2872,0.073428445
2873,-0.039628718
2874,0.005789855
2875,-0.035410225
2876,-0.010396519
2877,-0.045197695
2878,-0.045197245
2879,0.012098332
2880,-0.043457754
2881,-0.032535076
2882,0.046342786
2883,-0.009482191
2884,-0.048863012
2885,-0.032331444
2886,-0.021556985
2887,0.001348908
2888,-0.027754387
2889,-0.039813828
2890,-0.016500702
2891,-0.030800352
2892,-0.022661848
2893,-9.4547984e-05
2894,-0.008241999
2895,0.039654866
2896,-0.03921004
2897,-0.055525318
2898,0.051757455
2899,-0.004968866
2900,-0.030838631
2901,-0.03271158
2902,-0.03386306
2903,-0.026350468
2904,0.06021079
2905,-0.009488684
2906,-0.02532312
2907,-0.03130633
2908,-0.028430082
2909,-0.048213743
2910,0.04681919
2911,0.02159707
2912,0.045186676
2913,-0.023536613
2914,-0.031426474
2915,-0.03670821
2916,-0.017965889
2917,-0.034319375
2918,0.012026005
2919,-0.045136556
2920,-0.03611626
2921,-0.013491951
2922,-0.0120762605
2923,-0.03120893
2924,-0.034094736
2925,-0.03791657
2926,-0.06352368
2927,-0.028085355
2928,-0.040811166
2929,-0.047990244
2930,-0.030180236
2931,-0.02618376
2932,-0.0022619416
2933,-0.040768873
2934,-0.015926003
2935,-0.04653261
2936,-0.025171058
2937,-0.030297566
2938,0.0037794004
2939,0.0011198254
2940,0.006930019
2941,-0.021319488
2942,0.052121807
2943,-0.02506653
2944,0.002019052
2945,-0.0077932756
2946,-0.04627572
2947,-0.03620571
2948,-0.03856461
2949,0.062139697
2950,-0.03538151
2951,-0.038069308
2952,-0.024046412
2953,0.018234445
2954,-0.018126778
2955,-0.033148162
2956,-0.020236386
2957,-0.053103168
2958,0.0012938995
2959,-0.0076137553
2960,-0.020440504
2961,0.03006825
2962,-0.022360789
2963,-0.051682696
2964,-0.021322995
2965,0.0029413057
2966,-0.037171688
2967,-0.033793133
2968,-0.02246171
2969,-0.026773665
2970,-0.050145335
2971,-0.030773735
2972,0.0055718874
2973,-0.026352156
2974,-0.022812063
2975,0.015358727
2976,-0.028554877
2977,-0.019144595
2978,-0.018238869
2979,0.010195672
2980,0.04953864
2981,-0.041420706
2982,0.025248874
2983,-0.033193473
2984,-0.0033541818
2985,-0.035153013
2986,0.022751378
2987,-0.019783692
2988,-0.029464014
2989,0.03532222
2990,-0.013871129
2991,-0.03785783
2992,-0.028640056
2993,-0.041674778
2994,-0.032064714
2995,-0.02133199
2996,-0.020113207
2997,-0.03015412
2998,-0.05254329
2999,0.037254266
3000,-0.04470498
3001,0.059608076
3002,-0.005281755
3003,-0.032802094
3004,0.0059318817
3005,0.035538994
3006,-0.049187377
3007,0.007500966
3008,-0.026057923
3009,-0.024788465
3010,-0.048904024
3011,-0.0076667396
3012,-0.05935857
3013,-0.044325784
3014,-0.04007458
3015,0.027542377
3016,-0.017353693
3017,-0.033952672
3018,-0.026723959
3019,-0.016578251
3020,-0.031187832
3021,-0.008739875
3022,-0.0065352065
3023,-0.02947427
3024,-0.035277046
3025,-0.047751874
3026,-0.0553535
3027,-0.0061797635
3028,-0.025308311
3029,-0.023911834
3030,-0.034674622
3031,0.04090889
3032,-0.05600734
3033,0.0014362223
3034,-0.031249138
3035,-0.03135081
3036,-0.025394855
3037,-0.044420697
3038,-0.02108931
3039,0.0019503948
3040,-0.04400058
3041,0.050203707
3042,-0.026872762
3043,-0.03797631
3044,-0.021332739
3045,-0.011753388
3046,-0.0057780687
3047,-0.040492024
3048,-0.031232273
3049,-0.011572409
3050,-0.012933931
3051,-0.032708667
3052,0.044422578
3053,-0.039293464
3054,-0.05596107
3055,-0.029224996
3056,-0.027420381
3057,-0.037305824
3058,-0.030974614
3059,-0.046095762
3060,-0.011056744
3061,-0.04274903
3062,-0.028918281
3063,-0.044478025
3064,-0.023239257
3065,-0.027142566
3066,-0.043865144
3067,-0.0029043704
3068,-0.007921964
3069,0.01158576
3070,-0.029683318
3071,-0.02450411
3072,-0.007058674
3073,-0.024599291
3074,-0.022961767
3075,-0.02484869
3076,-0.034670915
3077,-0.024893142
3078,-0.027404374
3079,-0.038921267
3080,-0.022627639
3081,-0.013142571
3082,-0.021765405
3083,-0.033079233
3084,-0.019204916
3085,-0.053106755
3086,0.0063616973
3087,-0.03323091
3088,0.021233523
3089,-0.026618961
3090,-0.026198922
3091,-0.040640008
3092,-0.015523969
3093,-0.0095124515
3094,-0.037270337
3095,-0.034096163
3096,-0.0029358622
3097,-0.029144835
3098,-0.036229935
3099,-0.032170363
3100,-0.016502563
3101,-0.022733921
3102,-0.02079759
3103,-0.022345074
3104,0.042439815
3105,-0.0008652226
3106,-0.01286703
3107,-0.009712992
3108,-0.038628444
3109,-0.042818476
3110,0.0012285153
3111,-0.0062814965
3112,-0.023587372
3113,-0.0338816
3114,-0.03698026
3115,-0.020033605
3116,-0.025165666
3117,0.013625816
3118,-0.017555289
3119,-0.0344261
3120,-0.021375313
3121,-0.024701936
3122,-0.03030944
3123,0.034688115
3124,0.025964212
3125,-0.01736676
3126,-0.04407824
3127,-0.041653223
3128,-0.04493288
3129,0.055933695
3130,0.033208247
3131,0.02315703
3132,0.014727514
3133,0.029403964
3134,-0.0474672
3135,-0.017053308
3136,-0.035107177
3137,-0.023161279
3138,-0.0488082
3139,-0.00644145
3140,0.038659982
3141,-0.042919084
3142,-0.0175394
3143,-0.03798278
3144,-0.029462924
3145,-0.03370105
3146,-0.038482822
3147,-0.032345645
3148,0.013236404
3149,-0.026669955
3150,0.022293253
3151,-0.023834987
3152,-0.03643365
3153,-0.053124312
3154,-0.05423606
3155,-0.019118708
3156,0.025997208
3157,-0.020844296
3158,-0.034682695
3159,-0.040253986
3160,-0.05451304
3161,0.04474286
3162,-0.03889402
3163,-0.026218673
3164,-0.009552462
3165,-0.042555425
3166,-0.02645868
3167,0.021082498
3168,-0.023600103
3169,-0.04003868
3170,-0.026266014
3171,-0.039010454
3172,-0.002285817
3173,-0.011844941
3174,-0.022670278
3175,-0.026151521
3176,-0.029532077
3177,-0.008898412
3178,-0.012708464
3179,-0.02836731
3180,0.033505194
3181,-0.034291327
3182,-0.050382324
3183,-0.016558113
3184,-0.028461445
3185,-0.03702173
3186,-0.029487258
3187,-0.048649494
3188,0.027792096
3189,-0.032855302
3190,-0.015757367
3191,-0.03625034
3192,-0.025175365
3193,-0.023666598
3194,-0.048749756
3195,0.006440304
3196,0.006857004
3197,-0.0048519857
3198,0.03735785
3199,-0.03434174
3200,0.025642082
3201,0.011920762
3202,-0.013832646
3203,-0.02236326
3204,-0.03827887
3205,0.011606933
3206,-0.006461309
3207,-0.04205173
3208,-0.029465867
3209,0.00058892375
3210,-0.011511781
3211,-0.033695955
3212,-0.0068968385
3213,-0.01884607
3214,0.0002066441
3215,-0.010989429
3216,-0.029297488
3217,-0.007491605
3218,-0.03142899
3219,-0.014657205
3220,-0.02643409
3221,-0.019170748
3222,-0.013428033
3223,-0.031172547
3224,0.03564715
3225,-0.015895577
3226,-0.029983105
3227,-0.02715678
3228,0.00096637453
3229,-0.025274236
3230,-0.025716513
3231,-0.002543181
3232,0.022857107
3233,-0.028870868
3234,-0.00059888937
3235,0.015319377
3236,-0.018614065
3237,-0.03783127
3238,-0.012681698
3239,-0.012576617
3240,0.023049828
3241,-0.034315344
3242,-0.01838979
3243,-0.0010312067
3244,-0.01933393
3245,-0.0073687304
3246,0.015703406
3247,-0.019484803
3248,-0.027980022
3249,-0.013590358
3250,-0.022448152
3251,-0.0072112177
3252,0.034990497
3253,0.006557034
3254,-0.044089913
3255,-0.024417562
3256,-0.01967332
3257,0.031934567
3258,0.013957241
3259,-0.0026848186
3260,0.008320176
3261,0.010208599
3262,-0.04396794
3263,0.022861078
3264,-0.026848279
3265,0.012162852
3266,-0.03950616
3267,-0.007063925
3268,-0.042683553
3269,-0.03273562
3270,0.011206035
3271,-0.012675201
3272,-0.02906847
3273,-0.03707094
3274,-0.036645375
3275,-0.03288401
3276,-0.009116702
3277,0.026851283
3278,0.0031497218
3279,-0.02118493
3280,-0.013036794
3281,-0.04120741
3282,-0.044458892
3283,0.013054943
3284,0.0113793295
3285,-0.006807829
3286,-0.03095402
3287,-0.029152472
3288,-0.032884892
3289,-0.0028695406
3290,0.0018936994
3291,-0.012939761
3292,0.017380072
3293,-0.02804858
3294,-0.022190586
3295,-0.015461663
3296,0.009497197
3297,-0.0081021795
3298,-0.030241635
3299,-0.029840937
3300,0.036791015
3301,-0.0045962976
3302,-0.034564335
3303,-0.009818133
3304,-0.03291043
3305,-0.0152987605
3306,-0.0030299348
3307,-0.03226952
3308,0.02831579
3309,-0.015713228
3310,-0.036154054
3311,-0.026298117
3312,0.017091399
3313,-0.025017435
3314,-0.033118438
3315,0.007898039
3316,0.033055726
3317,-0.023098513
3318,-0.008604383
3319,-0.03187076
3320,-0.02520224
3321,-0.02019956
3322,-0.048740335
3323,0.0029727847
3324,0.0034117224
3325,0.03767182
3326,-0.021368537
3327,-0.019383369
3328,0.020267826
3329,0.031553585
3330,-0.033838317
3331,-0.029481435
3332,-0.019675948
3333,-0.0022225257
3334,-0.02281458
3335,-0.017665524
3336,-0.021945378
3337,0.029531766
3338,-0.024156574
3339,-0.033068866
3340,-0.020164007
3341,-0.008272912
3342,-0.00466478
3343,-0.02269201
3344,0.019994376
3345,-0.0075856857
3346,0.017673261
3347,-0.012498786
3348,-0.024045652
3349,0.013352354
3350,0.019775655
3351,-0.008640195
3352,0.035871893
3353,-0.009536855
3354,-0.003124015
3355,0.002577588
3356,0.027694462
3357,-0.03615606
3358,-0.014978672
3359,0.011065602
3360,0.026515594
3361,-0.0007358841
3362,-0.00021998963
3363,0.028263247
3364,-0.010615792
3365,-0.03446605
3366,0.007657269
3367,-0.012234247
3368,0.02251447
3369,-0.028152848
3370,0.040814385
3371,-0.017643103
3372,-0.023391627
3373,0.009769235
3374,-0.0056442413
3375,-0.019704185
3376,-0.011189586
3377,0.0038453806
3378,-0.001996369
3379,-0.0021676796
3380,0.042662263
3381,-0.019077575
3382,-0.031030918
3383,0.008388745
3384,-0.022848602
3385,0.035159282
3386,0.028681887
3387,0.008209719
3388,0.00014536733
3389,0.019231608
3390,-0.014568058
3391,0.039483927
3392,0.028474813
3393,-0.003116485
3394,-0.021646356
3395,-0.011709698
3396,0.007938456
3397,-0.016312193
3398,0.008344862
3399,0.011584063
3400,-0.0075432733
3401,-0.0049960464
3402,0.010007064
3403,-0.014433014
3404,0.0044869725
3405,0.039767597
3406,0.027731756
3407,-0.025017217
3408,-0.0145627055
3409,-0.02450469
3410,-0.0131053375
3411,0.036762882
3412,-0.024394345
3413,-0.016669309
3414,-0.00661376
3415,-0.0027074057
3416,-0.029628437
3417,0.0017513693
3418,0.018569749
3419,-0.012516171
3420,-0.028285703
3421,-0.020086523
3422,-0.02168378
3423,0.028290678
3424,0.018908847
3425,-0.009456225
3426,-0.025556754
3427,-0.01730212
3428,0.044135846
3429,0.014678926
3430,-0.0029038305
3431,-0.024301091
3432,-0.033391595
3433,-0.013549463
3434,-0.0147382915
3435,-0.028006341
3436,0.024396919
3437,-0.01848102
3438,-0.017003847
3439,-0.019751443
3440,-0.022802787
3441,-0.022775384
3442,-0.021639584
3443,0.0059769675
3444,0.035235606
3445,-0.027903086
3446,-0.011047758
3447,-0.0036687143
3448,-0.015466446
3449,-0.008753982
3450,0.0019947886
3451,0.02043322
3452,-0.0016327985
3453,0.046130586
3454,0.015354801
3455,-0.010698589
3456,0.003252271
3457,0.008290072
3458,-0.012259482
3459,-0.004382365
3460,0.01743157
3461,0.001237809
3462,-0.018578859
3463,-0.016637
3464,-0.007245467
3465,-0.011137664
3466,0.011852758
3467,-0.0031766305
3468,4.8238276e-06
3469,-0.0007832092
3470,0.00024890917
3471,0.008935178
3472,-0.011326598
3473,0.0053581954
3474,0.0019511547
3475,-0.015980422
3476,-0.005425952
3477,0.0038264543
3478,-0.0027849213
3479,-0.0042150994
3480,0.013955718
3481,0.0049778824
3482,-0.01949215
3483,-0.016126454
3484,0.0029240085
3485,0.008649015
3486,-0.0055440506
3487,0.0051071434
3488,-0.014135664
3489,-0.005900048
3490,-0.002493227
3491,-0.00065210846
3492,-0.0042977068
3493,0.018736472
3494,-0.008263926
3495,0.014198123
3496,0.006146644
3497,-0.009177038
3498,-0.0008334811
3499,-0.015071929
3500,0.0007948969
3501,-0.017033743
3502,0.011248925
3503,0.0070854104
3504,0.01047034
3505,0.016441261
3506,-0.0024658309
3507,-0.016103527
3508,-0.0015812946
3509,0.01567726
3510,0.015088981
3511,0.00604375
3512,0.0021457004
3513,0.004416045
3514,-0.009744585
3515,-0.011070944
3516,0.014056033
3517,0.0051347082
3518,0.008038921
3519,-0.001158862
3520,-0.015276229
3521,0.0027378597
3522,-0.016540391
3523,-0.0028616702
3524,0.002929739
3525,-0.011452119
3526,0.004146315
3527,0.0016677779
3528,-0.009805939
3529,0.005624879
3530,-0.00040748285
3531,-0.0051143225
3532,0.007124898
3533,0.005113545
3534,0.010396963
3535,-0.0047436375
3536,-0.011974486
3537,0.0034246286
3538,-0.01032009
3539,-0.0053241435
3540,-0.0023417047
3541,-2.8592316e-05
3542,0.0013826884
3543,-0.0076525104
3544,0.0006867277
3545,0.007822956
3546,0.005112713
3547,-0.0028060446
3548,-0.0041932445
3549,-0.018425232
3550,-0.019893857
3551,-0.0012042712
3552,-0.0123569835
3553,0.0030570487
3554,0.019024957
3555,0.0026092941
3556,0.0072274604
3557,-0.0052845576
3558,0.011378805
3559,-0.0008215777
3560,-0.011897316
3561,-0.006808714
3562,0.008602418
3563,0.0013740755
3564,-0.0019458177
3565,-0.0076380237
3566,-0.015157123
3567,0.009318535
3568,-0.010265747
3569,-0.0050532995
3570,0.0010422252
3571,0.0035508194
3572,0.008161561
3573,-0.0025849862
3574,0.0039318274
3575,0.008533702
3576,-0.007155306
3577,-0.0052655544
3578,0.014752468
3579,-0.0037623502
3580,0.016109893
3581,0.011883542
3582,-5.70603e-05
3583,0.010524989
3584,0.014458555
3585,0.0068043596
3586,-0.0018153198
3587,-0.0056563444
3588,0.004109513
3589,-0.007943035
3590,-0.019307418
3591,-0.004133454
3592,0.0053384188
3593,-0.016344504
3594,0.0017259446
3595,-0.011602867
3596,0.010335102
3597,-0.0037281387
3598,0.009686194
3599,0.0021252604
3600,-0.0141737955
3601,-0.012206578
3602,-0.010511766
3603,-0.0113036055
3604,-0.0078722555
3605,0.005132726
3606,0.013482734
3607,-0.0016505423
3608,0.013365334
3609,0.0110087115
3610,-0.0029994883
3611,-0.009042036
3612,0.0021050195
3613,-0.008549794
3614,0.005141353
3615,0.001464696
3616,3.0789473e-05
3617,-0.004219423
3618,0.004143846
3619,0.012884121
3620,-0.0014411744
3621,0.00934682
3622,0.001173635
3623,-0.0036396494
3624,-0.0012834729
3625,-0.0032894148
3626,0.01045036
3627,0.0035218685
3628,-0.019650258
3629,-0.008379663
3630,-0.0030599441
3631,-0.014361062
3632,-0.0015500528
3633,0.012862642
3634,-0.0015026695
3635,-0.013024784
3636,-0.007834261
3637,-0.00628005
3638,0.0024990146
3639,-0.014841175
3640,0.004642334
3641,0.009450246
3642,0.01603447
3643,-0.0032304008
3644,-0.0020033568
3645,0.005155461
3646,0.0038263141
3647,-0.005857856
3648,0.00019120205
3649,0.007042773
3650,0.0015774098
3651,-0.0074563096
3652,-0.0025488813
3653,0.007181267
3654,0.0020205074
3655,0.016002847
3656,-0.0010528172
3657,0.003514752
3658,0.016576456
3659,-0.002823303
3660,-0.014131854
3661,0.008039438
3662,0.006754905
3663,0.00025652416
3664,0.008768748
3665,0.0044138255
3666,0.0027839637
3667,-0.011564166
3668,-0.00090748747
3669,-0.011900302
3670,0.008802745
3671,-0.006424395
3672,-0.0045425994
3673,-0.012981804
3674,0.005835539
3675,-0.010979069
3676,-0.012896623
3677,0.0037107605
3678,0.01110126
3679,0.0053759622
3680,-0.010284821
3681,-0.013949631
3682,0.009660726
3683,-0.0036094438
3684,-0.0006014717
3685,-0.0013022079
3686,0.0054048197
3687,0.010159155
3688,0.0019073053
3689,-0.0021091255
3690,-0.0023286731
3691,0.004509651
3692,-0.008867995
3693,-0.0004356705
3694,0.0036719986
3695,0.007446264
3696,-0.0033466506
3697,-0.00352021
3698,0.003115502
3699,-0.0012864061
3700,-0.0052550337
3701,0.009240872
3702,0.015364861
3703,-0.0068297717
3704,-0.0041529494
3705,-0.005739624
3706,-0.0023756921
3707,-0.010459132
3708,0.015376541
3709,-0.008069253
3710,0.0030642424
3711,-0.0028323343
3712,-0.0015780239
3713,0.0051056677
3714,0.006325128
3715,-0.002341032
3716,0.003847217
3717,0.009108964
3718,-0.0034846168
3719,-0.015649071
3720,-0.0051176744
3721,0.0039038963
3722,0.008982315
3723,0.0018861108
3724,-0.009502876
3725,0.005631658
3726,0.008828508
3727,0.010172156
3728,0.008647378
3729,0.0066465973
3730,0.017135067
3731,0.018564409
3732,-0.0010825373
3733,0.0088242395
3734,-0.007429681
3735,0.0046386714
3736,0.00858052
3737,-0.015604052
3738,-0.00010950923
3739,-0.013620595
3740,0.0050697806
3741,0.004532732
3742,0.0015312483
3743,-0.008103952
3744,0.01314578
3745,0.00733065
3746,-0.002351218
3747,0.0027651857
3748,-0.008491299
3749,-0.0046209586
3750,0.007599314
3751,-0.0025676552
3752,-0.019857943
3753,-0.00051739905
3754,0.0030458393
3755,-0.005633251
3756,-0.0052432506
3757,0.016047506
3758,-0.0017836767
3759,-0.008365444
3760,-0.0011348244
3761,0.01692423
3762,-0.004866816
3763,0.0052388106
3764,-0.0010822521
3765,0.0042373757
3766,-0.005523055
3767,0.0012095184
3768,-0.016661327
3769,-0.0028359832
3770,-0.0023867988
3771,-0.002150638
3772,-0.00025531754
3773,0.00111383
3774,-0.011666243
3775,-0.008222053
3776,0.010014245
3777,0.005106297
3778,-0.012089235
3779,0.011850314
3780,-0.004068115
3781,0.011448854
3782,0.006705638
3783,0.009451782
3784,0.007488811
3785,-0.017980853
3786,0.0028243752
3787,0.007068086
3788,0.00952085
3789,0.014367118
3790,-0.0046338933
3791,-0.0035001663
3792,0.008414575
3793,-0.016176296
3794,-0.010637123
3795,0.014395779
3796,-0.007995399
3797,0.0051413947
3798,0.001772226
3799,-0.008584881
3800,0.0074877376
3801,-0.008502639
3802,0.0015767553
3803,-0.0011648337
3804,-0.00041261304
3805,-0.008741711
3806,-0.0074029546
3807,-0.009334041
3808,-0.0079102935
3809,-0.008018587
3810,-0.010895518
3811,0.0021544737
3812,-0.006226053
3813,0.017294358
3814,-0.014529575
3815,-0.0030493145
3816,0.0013174644
3817,0.0020242757
3818,0.0154375015
3819,0.0009038616
3820,0.0007511449
3821,0.0030098986
3822,-0.00058466766
3823,-0.0073384964
3824,-0.003425787
3825,0.0052764076
3826,-0.010937552
3827,-0.00026714042
3828,-0.012884668
3829,-0.0019400078
3830,0.009114114
3831,6.7611836e-05
3832,-0.018242626
3833,0.0044028116
3834,-0.014367867
3835,0.0030288391
3836,0.007210215
3837,-0.0056046867
3838,-0.014924452
3839,-0.0077518607
3840,0.0016815888
3841,0.008488569
3842,0.0048186053
3843,-0.010632783
3844,0.006347852
3845,0.001223151
3846,0.015069129
3847,0.009255607
3848,-0.0013896185
3849,0.009986449
3850,-0.008359707
3851,-0.0009169737
3852,0.0061603687
3853,-0.0145850545
3854,-0.009167124
3855,0.0006939945
3856,0.0042177425
3857,0.0017091185
3858,-0.015447321
3859,0.018176155
3860,-0.0020579568
3861,-0.017843997
3862,-0.010017779
3863,0.016699407
3864,-0.014032731
3865,0.0060073077
3866,-0.010460744
3867,-0.0135319345
3868,0.0010266518
3869,-0.017459128
3870,0.008743641
3871,-0.0038077263
3872,-0.0009988011
3873,0.014672694
3874,-0.009360702
3875,-0.015324892
3876,0.0059214807
3877,0.0066742776
3878,-0.008205188
3879,-0.00330107
3880,0.0046240436
3881,0.01049674
3882,0.011553246
3883,0.0042530266
3884,0.005018101
3885,-0.010893379
3886,-0.007963818
3887,0.0022755216
3888,-0.015986586
3889,-0.0048057307
3890,-0.010773282
3891,0.010892137
3892,-0.005659811
3893,0.010506656
3894,0.0018448156
3895,0.0003262569
3896,0.0016377938
3897,0.0020804731
3898,0.011599732
3899,0.011061393
3900,0.0043331967
3901,-0.01900513
3902,0.0006338528
3903,-0.0005090178
3904,0.008494881
3905,-0.0077244984
3906,-0.0074738157
3907,-0.0073931287
3908,0.012460504
3909,-0.008351136
3910,0.009817984
3911,0.00075521227
3912,0.008436917
3913,0.01893869
3914,-0.005876094
3915,0.005235992
3916,-0.009256834
3917,0.003980499
3918,0.0098675145
3919,0.017595544
3920,-0.002727193
3921,0.0016072852
3922,0.0070536337
3923,-0.0043420964
3924,0.0052160732
3925,0.0024046202
3926,-0.014698929
3927,-0.007839239
3928,0.0013855202
3929,0.00028668306
3930,0.0003432001
3931,0.016653495
3932,-0.0039736894
3933,0.009102236
3934,-0.011232002
3935,0.008293713
3936,0.0016488166
3937,0.0056186747
3938,-0.0026558796
3939,0.0014645553
3940,-0.005972474
3941,0.0023577556
3942,-0.017078748
3943,0.009911051
3944,-0.008142671
3945,-0.0007643349
3946,0.011444424
3947,-0.0056611127
3948,-0.0052905944
3949,-0.007532016
3950,-0.017269762
3951,7.8725694e-05
3952,0.005881578
3953,0.01326616
3954,-0.006407125
3955,0.011402872
3956,-0.019973295
3957,0.0036222788
3958,-0.004264191
3959,-0.006491026
3960,0.002523398
3961,-0.008053809
3962,0.01419521
3963,-0.0029170644
3964,0.00034997918
3965,-0.0065912995
3966,-0.0111829145
3967,5.246629e-05
3968,-0.012465185
3969,-0.0029690692
3970,0.0074451216
3971,0.008315007
3972,0.00079136883
3973,-0.0012389418
3974,-0.016824447
3975,0.007068869
3976,-0.015382227
3977,-0.003724318
3978,-0.015440552
3979,-0.0054408214
3980,-0.010564236
3981,0.007618487
3982,-0.003527065
3983,-0.012576185
3984,-0.010332483
3985,-0.0036901392
3986,0.0063727037
3987,-0.008767337
3988,0.008100258
3989,0.0025661795
3990,-0.012851998
3991,-0.010068768
3992,0.0037118027
3993,-0.0051083975
3994,0.006060632
3995,-0.015581184
3996,0.0171062
3997,-0.0067049
3998,0.011969234
3999,-0.0024580758
4000,-0.009779615
4001,-0.011980462
4002,0.010437047
4003,0.0020517525
4004,-0.016693817
4005,0.004592463
4006,0.012788986
4007,0.0073913303
4008,-0.013793943
4009,0.007461004
4010,0.010609223
4011,-0.0016986021
4012,-0.0005444376
4013,0.004818867
4014,-0.007020003
4015,-0.0055496613
4016,0.0040651485
4017,-0.009550864
4018,-6.915121e-05
4019,0.0028291827
4020,0.007814285
4021,-0.013866051
4022,0.014956664
4023,-0.00056894886
4024,0.010375283
4025,-0.019811722
4026,-0.0040524877
4027,0.0027483185
4028,0.005327387
4029,0.00094617717
4030,-0.00839554
4031,0.010755071
4032,0.011507134
4033,0.0054001347
4034,0.0035936933
4035,-0.013997046
4036,0.006225186
4037,-0.011439877
4038,0.00304516
4039,-0.005713367
4040,0.013264786
4041,-0.008848939
4042,0.005306898
4043,5.268959e-05
4044,-0.008254491
4045,0.0032531016
4046,0.0035144275
4047,-0.0008869683
4048,-0.014123397
4049,-0.0058750287
4050,-0.0009789532
4051,-0.018321624
4052,-0.01975422
4053,0.00040834857
4054,-0.012200284
4055,-0.008377674
4056,0.006846415
4057,9.100897e-05
4058,-0.005433788
4059,0.0050001545
4060,-0.0033398187
4061,-0.009319332
4062,0.0015469457
4063,0.0039589284
4064,0.0015107943
4065,0.015515658
4066,0.0084459605
4067,-0.015016469
4068,0.0131296525
4069,-0.014703494
4070,0.0028283992
4071,0.0010030554
4072,0.0057532345
4073,-0.00406744
4074,-0.010683764
4075,0.005890401
4076,-0.015823709
4077,0.003856132
4078,-0.017898597
4079,-0.009928696
4080,-0.0021246322
4081,0.014642649
4082,-0.010921327
4083,0.009439907
4084,0.0008553453
4085,-0.009401849
4086,0.0013503124
4087,-0.005107614
4088,-0.011708859
4089,-0.0071431077
4090,0.011254933
4091,-0.008675614
4092,-0.007113969
4093,-0.0038832917
4094,-0.004388631
4095,-0.0090108
